{"learner":{"attributes":{"scikit_learn":"{\"_estimator_type\": \"classifier\"}"},"feature_names":["Protocol","Flow Duration","Total Fwd Packets","Total Backward Packets","Fwd Packets Length Total","Bwd Packets Length Total","Fwd Packet Length Max","Fwd Packet Length Min","Fwd Packet Length Mean","Fwd Packet Length Std","Bwd Packet Length Max","Bwd Packet Length Min","Bwd Packet Length Mean","Bwd Packet Length Std","Flow Bytes/s","Flow Packets/s","Fwd IAT Mean","Fwd IAT Std","Fwd IAT Max","Fwd IAT Min","Bwd IAT Mean","Bwd IAT Std","Bwd IAT Max","Bwd IAT Min"],"feature_types":["int","int","int","int","float","float","float","float","float","float","float","float","float","float","float","float","float","float","float","float","float","float","float","float"],"gradient_booster":{"model":{"gbtree_model_param":{"num_parallel_tree":"1","num_trees":"100"},"iteration_indptr":[0,1,2,3,4,5,6,7,8,9,10,11,12,13,14,15,16,17,18,19,20,21,22,23,24,25,26,27,28,29,30,31,32,33,34,35,36,37,38,39,40,41,42,43,44,45,46,47,48,49,50,51,52,53,54,55,56,57,58,59,60,61,62,63,64,65,66,67,68,69,70,71,72,73,74,75,76,77,78,79,80,81,82,83,84,85,86,87,88,89,90,91,92,93,94,95,96,97,98,99,100],"tree_info":[0,0,0,0,0,0,0,0,0,0,0,0,0,0,0,0,0,0,0,0,0,0,0,0,0,0,0,0,0,0,0,0,0,0,0,0,0,0,0,0,0,0,0,0,0,0,0,0,0,0,0,0,0,0,0,0,0,0,0,0,0,0,0,0,0,0,0,0,0,0,0,0,0,0,0,0,0,0,0,0,0,0,0,0,0,0,0,0,0,0,0,0,0,0,0,0,0,0,0,0],"trees":[{"base_weights":[-2.347872E-2,-1.2895501E0,2.315717E0,-1.4642363E0,-4.5401976E-1,1.3489233E-1,2.7829583E0,-1.4762182E0,1.728601E0,-1.5005884E0,1.98625E-1,-4.5615083E-1,5.6538624E-1,2.8936844E0,1.5607302E0,-1.5145632E0,-1.0304757E0,-1.4657346E0,8.602045E-1,-5.2930486E-1,-1.5023279E0,-1.2965123E-2,2.7326593E0,3.9425933E-1,8.669838E-1,-3.5098705E-1,8.702532E-1,5.8734643E-1,1.7352161E0,-1.5147961E0,1.7297736E-1,-1.5176972E0,2.8767118E0,-4.465799E-1,-1.0193633E-1,-3.8112065E-1,4.1690275E-1,-1.4703231E0,-4.5757544E-1,3.234542E-2,-7.7347195E-1,8.680981E-1,-5.59419E-1,6.569432E-1,-6.1289158E-2,-3.884534E-2,-1.0632473E0,-4.2862046E-1,7.014957E-1,1.4649961E0,1.9567397E0,-4.327287E-1,-4.5567533E-1,-2.8044835E-1,2.2656098E-1,-2.0088756E-1,-4.568344E-1,8.662711E-1,-8.694828E-3,-4.4984064E-1,3.515067E-1,-7.870247E-2,2.3524452E-2,-1.9323488E-1,-3.639991E-1,-5.063438E-2,-3.5744932E-1,3.8023064E-1,1.7623828E-1,4.0798444E-1,-3.4361932E-2,-4.683711E-2,3.2706866E-1,-3.6494678E-1,-9.188703E-2,2.6203188E-1,7.78979E-2,5.4774636E-1,2.9531315E-1,5.9384483E-1,-3.889392E-1],"categories":[],"categories_nodes":[],"categories_segments":[],"categories_sizes":[],"default_left":[0,0,0,0,0,0,0,0,0,0,0,0,0,0,0,0,0,0,0,0,0,0,0,0,0,0,0,0,0,0,0,0,0,0,0,0,0,0,0,0,0,0,0,0,0,0,0,0,0,0,0,0,0,0,0,0,0,0,0,0,0,0,0,0,0,0,0,0,0,0,0,0,0,0,0,0,0,0,0,0,0],"id":0,"left_children":[1,3,5,7,9,11,13,15,17,19,21,-1,23,25,27,29,31,33,-1,35,37,39,41,43,-1,45,-1,47,49,51,53,55,57,-1,-1,-1,-1,59,-1,61,63,-1,65,67,69,71,73,-1,75,77,79,-1,-1,-1,-1,-1,-1,-1,-1,-1,-1,-1,-1,-1,-1,-1,-1,-1,-1,-1,-1,-1,-1,-1,-1,-1,-1,-1,-1,-1,-1],"loss_changes":[2.3086794E5,7.381578E3,2.7894312E4,1.6029141E3,5.9751694E3,3.4438457E3,3.0465469E3,7.1077344E2,5.747903E2,4.880371E0,2.88927E3,0E0,1.5243828E3,4.8123438E2,3.1742432E2,1.53515625E1,6.2947344E3,5.7253265E-1,0E0,1.2503643E1,2.1777344E-1,1.714348E2,2.217251E2,4.276219E2,0E0,1.027528E1,0E0,6.694005E1,9.227637E1,9.2578125E0,4.701947E0,1.1650879E1,1.165332E1,0E0,0E0,0E0,0E0,1.11658936E2,0E0,6.376793E1,1.51353E1,0E0,4.7866163E0,9.539252E1,9.912825E1,4.579871E0,1.2631216E0,0E0,2.0424881E1,1.23063354E2,6.6967285E1,0E0,0E0,0E0,0E0,0E0,0E0,0E0,0E0,0E0,0E0,0E0,0E0,0E0,0E0,0E0,0E0,0E0,0E0,0E0,0E0,0E0,0E0,0E0,0E0,0E0,0E0,0E0,0E0,0E0,0E0],"parents":[2147483647,0,0,1,1,2,2,3,3,4,4,5,5,6,6,7,7,8,8,9,9,10,10,12,12,13,13,14,14,15,15,16,16,17,17,19,19,20,20,21,21,22,22,23,23,25,25,27,27,28,28,29,29,30,30,31,31,32,32,37,37,39,39,40,40,42,42,43,43,44,44,45,45,46,46,48,48,49,49,50,50],"right_children":[2,4,6,8,10,12,14,16,18,20,22,-1,24,26,28,30,32,34,-1,36,38,40,42,44,-1,46,-1,48,50,52,54,56,58,-1,-1,-1,-1,60,-1,62,64,-1,66,68,70,72,74,-1,76,78,80,-1,-1,-1,-1,-1,-1,-1,-1,-1,-1,-1,-1,-1,-1,-1,-1,-1,-1,-1,-1,-1,-1,-1,-1,-1,-1,-1,-1,-1,-1],"split_conditions":[5.3150794E5,2.2085423E1,1.76E3,9.68E3,8E1,1.7E1,4.41E2,3.0659367E4,6.0744766E3,1.8714525E2,4.28E2,-4.5615083E-1,2.309401E0,4.4E2,1.152E3,5.28E2,9.42E2,1.496E4,8.602045E-1,2.15259E5,1.161E3,2E0,4.47E2,3E0,8.669838E-1,3.9519292E6,8.702532E-1,1.7E1,2E0,3.559E3,1.7E1,4.7E1,4.41E2,-4.465799E-1,-1.0193633E-1,-3.8112065E-1,4.1690275E-1,5.205833E2,-4.5757544E-1,1E0,3E0,8.680981E-1,2.0168067E5,3.621E2,3.86E2,4.29E2,2.2849122E7,-4.2862046E-1,3E0,1.456E3,1E0,-4.327287E-1,-4.5567533E-1,-2.8044835E-1,2.2656098E-1,-2.0088756E-1,-4.568344E-1,8.662711E-1,-8.694828E-3,-4.4984064E-1,3.515067E-1,-7.870247E-2,2.3524452E-2,-1.9323488E-1,-3.639991E-1,-5.063438E-2,-3.5744932E-1,3.8023064E-1,1.7623828E-1,4.0798444E-1,-3.4361932E-2,-4.683711E-2,3.2706866E-1,-3.6494678E-1,-9.188703E-2,2.6203188E-1,7.78979E-2,5.4774636E-1,2.9531315E-1,5.9384483E-1,-3.889392E-1],"split_indices":[14,9,4,4,7,0,6,14,14,16,6,0,9,6,7,6,4,4,0,1,10,19,6,1,0,14,0,0,19,1,0,1,6,0,0,0,0,13,0,19,19,0,14,8,4,8,14,0,16,6,3,0,0,0,0,0,0,0,0,0,0,0,0,0,0,0,0,0,0,0,0,0,0,0,0,0,0,0,0,0,0],"split_type":[0,0,0,0,0,0,0,0,0,0,0,0,0,0,0,0,0,0,0,0,0,0,0,0,0,0,0,0,0,0,0,0,0,0,0,0,0,0,0,0,0,0,0,0,0,0,0,0,0,0,0,0,0,0,0,0,0,0,0,0,0,0,0,0,0,0,0,0,0,0,0,0,0,0,0,0,0,0,0,0,0],"sum_hessian":[7.795207E4,5.0577727E4,2.7374348E4,4.1831227E4,8.7465E3,4.8303286E3,2.254402E4,4.1675363E4,1.5586078E2,3.3589126E3,5.3875874E3,9.963795E2,3.8339492E3,2.0670076E4,1.8739435E3,3.837202E4,3.303345E3,4.088522E1,1.14975555E2,6.55067E0,3.352362E3,4.973314E3,4.1427344E2,3.5721482E3,2.6180093E2,4.5402924E1,2.0624672E4,2.8551886E2,1.5884246E3,3.8366824E4,5.195359E0,2.9376367E3,3.657081E2,3.975579E1,1.1294259E0,4.969474E0,1.5811963E0,1.426239E3,1.9261229E3,4.694572E3,2.787423E2,3.9507318E2,1.9200241E1,2.2654026E3,1.3067457E3,3.2301582E1,1.310134E1,1.4682537E1,2.7083633E2,7.1899255E2,8.6943207E2,2.0862756E3,3.6280547E4,1.5811963E0,3.614163E0,1.82967E1,2.91934E3,3.643528E2,1.3553112E0,1.4111047E3,1.5134307E1,6.340597E2,4.060512E3,2.1730154E2,6.144077E1,1.264957E1,6.55067E0,2.2972523E2,2.0356772E3,4.630646E1,1.2604393E3,3.0042728E1,2.2588518E0,1.0390718E1,2.7106223E0,1.9426126E2,7.657507E1,4.0907806E2,3.0991446E2,8.637849E2,5.6471295E0],"tree_param":{"num_deleted":"0","num_feature":"24","num_nodes":"81","size_leaf_vector":"1"}},{"base_weights":[-6.2276192E-2,-1.0990803E0,1.4565125E0,-1.2736205E0,-3.5739216E-1,1.9567E-2,1.7131028E0,-1.2847013E0,1.1239527E0,-1.3062179E0,1.3264659E-1,-3.9806053E-1,3.2350323E-1,1.7909175E0,9.314396E-1,-1.320178E0,-8.860066E-1,-1.2745742E0,5.346408E-1,-4.1566384E-1,-1.3079839E0,-9.968227E-3,1.7028009E0,2.4815327E-1,5.3661203E-1,-3.5627595E-1,5.3884566E-1,4.535552E-1,1.0710644E0,-1.3204161E0,1.0373186E-1,-1.3237145E0,1.7872089E0,-3.9027318E-1,-8.070058E-2,-3.3019254E-1,3.1814137E-1,-1.274615E0,-3.9961645E-1,2.2360358E-2,-6.015938E-1,5.381346E-1,-4.4229543E-1,4.163572E-1,-4.489817E-2,-3.837755E-1,-2.2872771E-1,-3.7766036E-1,5.08907E-1,1.0865004E0,-3.8967356E-1,-3.725439E-1,-3.9748394E-1,-2.463143E-1,1.6388904E-1,-1.5582167E-1,-3.9874598E-1,5.384641E-1,-3.6200203E-2,-3.911194E-1,2.2995566E-1,-5.6873392E-2,1.632568E-2,-1.4703883E-1,-3.0271196E-1,-3.0780363E-1,-3.4485523E-2,2.4003E-1,1.1002116E-1,2.7669426E-2,-9.8818235E-2,-8.290244E-3,-1.747987E-1,1.756995E-1,3.2653823E-2,3.7799788E-1,2.8263798E-1],"categories":[],"categories_nodes":[],"categories_segments":[],"categories_sizes":[],"default_left":[0,0,0,0,0,0,0,0,0,0,0,0,0,0,0,0,0,0,0,0,0,0,0,0,0,0,0,0,0,0,0,0,0,0,0,0,0,0,0,0,0,0,0,0,0,0,0,0,0,0,0,0,0,0,0,0,0,0,0,0,0,0,0,0,0,0,0,0,0,0,0,0,0,0,0,0,0],"id":1,"left_children":[1,3,5,7,9,11,13,15,17,19,21,-1,23,25,27,29,31,33,-1,35,37,39,41,43,-1,45,-1,47,49,51,53,55,57,-1,-1,-1,-1,59,-1,61,63,-1,65,67,69,-1,71,-1,73,75,-1,-1,-1,-1,-1,-1,-1,-1,-1,-1,-1,-1,-1,-1,-1,-1,-1,-1,-1,-1,-1,-1,-1,-1,-1,-1,-1],"loss_changes":[1.14174305E5,5.5777734E3,1.084573E4,9.2814844E2,3.8175212E3,1.8247123E3,1.5164453E3,4.899414E2,2.564425E2,3.854004E0,1.2125435E3,0E0,4.0116666E2,2.5576562E2,1.5043103E2,1.09453125E1,3.3255984E3,5.836029E-1,0E0,8.244909E0,5.439453E-1,9.497511E1,8.878723E1,1.7061546E2,0E0,6.304056E0,0E0,4.92797E1,6.541882E1,9.703125E0,3.0091772E0,9.988281E0,6.0716553E0,0E0,0E0,0E0,0E0,7.186719E1,0E0,3.200307E1,1.1190086E1,0E0,3.5406365E0,4.157718E1,4.9302734E1,0E0,3.5745723E0,0E0,1.5222397E1,4.2367676E1,0E0,0E0,0E0,0E0,0E0,0E0,0E0,0E0,0E0,0E0,0E0,0E0,0E0,0E0,0E0,0E0,0E0,0E0,0E0,0E0,0E0,0E0,0E0,0E0,0E0,0E0,0E0],"parents":[2147483647,0,0,1,1,2,2,3,3,4,4,5,5,6,6,7,7,8,8,9,9,10,10,12,12,13,13,14,14,15,15,16,16,17,17,19,19,20,20,21,21,22,22,23,23,25,25,27,27,28,28,29,29,30,30,31,31,32,32,37,37,39,39,40,40,42,42,43,43,44,44,46,46,48,48,49,49],"right_children":[2,4,6,8,10,12,14,16,18,20,22,-1,24,26,28,30,32,34,-1,36,38,40,42,44,-1,46,-1,48,50,52,54,56,58,-1,-1,-1,-1,60,-1,62,64,-1,66,68,70,-1,72,-1,74,76,-1,-1,-1,-1,-1,-1,-1,-1,-1,-1,-1,-1,-1,-1,-1,-1,-1,-1,-1,-1,-1,-1,-1,-1,-1,-1,-1],"split_conditions":[5.3150794E5,2.2085423E1,1.438E3,9.68E3,8E1,1.7E1,4.41E2,3.0659367E4,6.0744766E3,7.07E2,4.28E2,-3.9806053E-1,2.309401E0,4.4E2,1.152E3,5.28E2,4.18E2,2.6693338E6,5.346408E-1,2.15259E5,1.161E3,2E0,4.47E2,3E0,5.3661203E-1,5E0,5.3884566E-1,1.7E1,1E0,3.559E3,1.7E1,4.7E1,4.41E2,-3.9027318E-1,-8.070058E-2,-3.3019254E-1,3.1814137E-1,5.205833E2,-3.9961645E-1,1E0,3E0,5.381346E-1,2.4314546E3,3.621E2,4.64E2,-3.837755E-1,3.9519292E6,-3.7766036E-1,4.8E1,1.472E9,-3.8967356E-1,-3.725439E-1,-3.9748394E-1,-2.463143E-1,1.6388904E-1,-1.5582167E-1,-3.9874598E-1,5.384641E-1,-3.6200203E-2,-3.911194E-1,2.2995566E-1,-5.6873392E-2,1.632568E-2,-1.4703883E-1,-3.0271196E-1,-3.0780363E-1,-3.4485523E-2,2.4003E-1,1.1002116E-1,2.7669426E-2,-9.8818235E-2,-8.290244E-3,-1.747987E-1,1.756995E-1,3.2653823E-2,3.7799788E-1,2.8263798E-1],"split_indices":[14,9,4,4,7,0,6,14,14,18,6,0,9,6,7,6,6,17,0,1,10,19,6,1,0,2,0,0,3,1,0,1,6,0,0,0,0,13,0,19,19,0,16,8,6,0,14,0,1,14,0,0,0,0,0,0,0,0,0,0,0,0,0,0,0,0,0,0,0,0,0,0,0,0,0,0,0],"split_type":[0,0,0,0,0,0,0,0,0,0,0,0,0,0,0,0,0,0,0,0,0,0,0,0,0,0,0,0,0,0,0,0,0,0,0,0,0,0,0,0,0,0,0,0,0,0,0,0,0,0,0,0,0,0,0,0,0,0,0,0,0,0,0,0,0,0,0,0,0,0,0,0,0,0,0,0,0],"sum_hessian":[7.250405E4,4.3089316E4,2.9414732E4,3.4880285E4,8.209032E3,4.4568374E3,2.4957895E4,3.472028E4,1.6000322E2,2.7952095E3,5.4138228E3,8.201616E2,3.6366758E3,2.2697102E4,2.2607922E3,3.1881123E4,2.8391572E3,3.4250893E1,1.2575232E2,5.9998727E0,2.7892095E3,4.963948E3,4.498745E2,3.4599146E3,1.7676118E2,5.5034966E1,2.2642066E4,5.121476E2,1.7486447E3,3.1875867E4,5.2565312E0,2.4401208E3,3.9903653E2,3.3090534E1,1.1603612E0,4.271927E0,1.7279462E0,1.1914645E3,1.597745E3,4.707666E3,2.5628192E2,4.3172726E2,1.8147247E1,2.1979358E3,1.2619789E3,5.5856986E0,4.944927E1,1.5355334E1,4.9679224E2,1.7378672E3,1.0777512E1,1.7520459E3,3.012382E4,1.4245669E0,3.8319643E0,1.7037441E1,2.4230833E3,3.9749744E2,1.5390774E0,1.1750638E3,1.6400663E1,6.1789124E2,4.0897751E3,2.029611E2,5.3320805E1,5.753426E0,1.2393821E1,2.4993166E2,1.948004E3,8.519886E2,4.099903E2,3.2220665E1,1.7228605E1,4.164297E2,8.036254E1,7.8582416E2,9.5204297E2],"tree_param":{"num_deleted":"0","num_feature":"24","num_nodes":"77","size_leaf_vector":"1"}},{"base_weights":[-6.490738E-2,-9.8300743E-1,1.1459959E0,-1.1693734E0,-2.963049E-1,2.79032E-2,1.3888867E0,-1.1917748E0,-3.6633402E-1,-1.1926905E0,8.1728816E-2,-3.6534706E-1,2.6845095E-1,1.4607224E0,6.8444014E-1,-1.2020994E0,-5.9518516E-1,-1.2138289E0,1.6005979E0,-2.0864613E-1,-1.1945935E0,-7.531882E-3,1.3708497E0,1.826245E-1,4.3835402E-1,-2.3456846E-1,4.393418E-1,2.4379478E-1,7.723781E-1,-1.2104403E0,-1.068802E0,-3.6717185E-1,1.5308105E0,5.0649736E-2,-1.2193316E0,1.6646985E0,-6.896608E-1,2.6041555E-1,-2.9234797E-1,-1.1565874E0,-3.666796E-1,1.5601448E-2,-4.6736598E-1,4.3840948E-1,-3.437965E-1,2.9441074E-1,-2.8662788E-2,-3.7356623E-2,-7.886205E-1,2.83641E-1,-9.6306956E-1,7.913405E-1,-1.1133932E0,-3.3384323E-1,-3.6489102E-1,-3.6663678E-1,4.2648628E-1,9.807864E-1,4.3331727E-1,-3.663014E-1,-6.6234E-2,1.0919645E0,4.3942207E-1,9.152756E-2,-3.0031118E-1,-3.6501208E-1,-2.1724563E-2,-4.0831152E-2,1.1395078E-2,-2.4884947E-1,-1.0796424E-1,-1.5756339E-1,1.3736902E-1,1.6470748E-1,7.936515E-2,2.6277855E-1,-2.0075882E-2,-1.6416736E-1,4.932165E-2,-3.337978E-1,-1.1373178E-1,7.020567E-2,2.8794426E-1,-1.7176017E-2,-3.480371E-1,2.851476E-1,1.954165E-1,1.406448E-1,-3.7305856E-1],"categories":[],"categories_nodes":[],"categories_segments":[],"categories_sizes":[],"default_left":[0,0,0,0,0,0,0,0,0,0,0,0,0,0,0,0,0,0,0,0,0,0,0,0,0,0,0,0,0,0,0,0,0,0,0,0,0,0,0,0,0,0,0,0,0,0,0,0,0,0,0,0,0,0,0,0,0,0,0,0,0,0,0,0,0,0,0,0,0,0,0,0,0,0,0,0,0,0,0,0,0,0,0,0,0,0,0,0,0],"id":2,"left_children":[1,3,5,7,9,11,13,15,17,19,21,-1,23,25,27,29,31,33,35,37,39,41,43,45,-1,47,-1,49,51,53,55,-1,57,-1,59,61,63,-1,-1,65,-1,67,69,-1,71,73,75,77,79,81,83,85,87,-1,-1,-1,-1,-1,-1,-1,-1,-1,-1,-1,-1,-1,-1,-1,-1,-1,-1,-1,-1,-1,-1,-1,-1,-1,-1,-1,-1,-1,-1,-1,-1,-1,-1,-1,-1],"loss_changes":[6.888435E4,4.5097812E3,7.256414E3,4.981953E2,2.5497139E3,1.4295846E3,1.109832E3,1.653789E2,1.2583141E3,3.93042E0,6.090739E2,0E0,4.0905237E2,1.26984375E2,7.859766E1,2.8179688E1,6.176877E2,4.2177734E0,3.452997E1,5.3972254E0,9.2871094E-1,5.2676826E1,5.3701294E1,8.813691E1,0E0,4.8688107E0,0E0,1.6609827E1,6.1473938E1,1.2917969E1,6.0100464E2,0E0,1.1142242E1,0E0,6.0809326E-1,8.214612E1,2.4420004E0,0E0,0E0,6.2294067E1,0E0,1.6015306E1,8.933899E0,0E0,2.8579605E0,1.8407944E1,4.4769073E1,3.5990167E0,1.133172E0,1.0835581E1,1.9122372E0,3.6760742E1,4.1419525E0,0E0,0E0,0E0,0E0,0E0,0E0,0E0,0E0,0E0,0E0,0E0,0E0,0E0,0E0,0E0,0E0,0E0,0E0,0E0,0E0,0E0,0E0,0E0,0E0,0E0,0E0,0E0,0E0,0E0,0E0,0E0,0E0,0E0,0E0,0E0,0E0],"parents":[2147483647,0,0,1,1,2,2,3,3,4,4,5,5,6,6,7,7,8,8,9,9,10,10,12,12,13,13,14,14,15,15,16,16,17,17,18,18,19,19,20,20,21,21,22,22,23,23,25,25,27,27,28,28,29,29,30,30,32,32,34,34,35,35,36,36,39,39,41,41,42,42,44,44,45,45,46,46,47,47,48,48,49,49,50,50,51,51,52,52],"right_children":[2,4,6,8,10,12,14,16,18,20,22,-1,24,26,28,30,32,34,36,38,40,42,44,46,-1,48,-1,50,52,54,56,-1,58,-1,60,62,64,-1,-1,66,-1,68,70,-1,72,74,76,78,80,82,84,86,88,-1,-1,-1,-1,-1,-1,-1,-1,-1,-1,-1,-1,-1,-1,-1,-1,-1,-1,-1,-1,-1,-1,-1,-1,-1,-1,-1,-1,-1,-1,-1,-1,-1,-1,-1,-1],"split_conditions":[4.2857144E5,2.2085423E1,1.76E3,4.4E3,8E1,1.7E1,4.41E2,2.5E5,7.335097E3,1.8714525E2,4.28E2,-3.6534706E-1,2.309401E0,4.4E2,1.195E3,3.0659367E4,1.7E1,5E0,4.41E2,7.928118E2,1.161E3,2E0,4.47E2,3E0,4.3835402E-1,3.9519292E6,4.393418E-1,2.161E3,7.0694176E1,3.559E3,9.42E2,-3.6717185E-1,2.606E3,5.0649736E-2,1.408E4,6.467614E1,4.77588E4,2.6041555E-1,-2.9234797E-1,9.66E2,-3.666796E-1,1E0,5.9879566E4,4.3840948E-1,1.04718E5,3.621E2,3.86E2,2.432E3,3.3E2,1.3280223E2,2.4873611E1,1.456E3,1.472E3,-3.3384323E-1,-3.6489102E-1,-3.6663678E-1,4.2648628E-1,9.807864E-1,4.3331727E-1,-3.663014E-1,-6.6234E-2,1.0919645E0,4.3942207E-1,9.152756E-2,-3.0031118E-1,-3.6501208E-1,-2.1724563E-2,-4.0831152E-2,1.1395078E-2,-2.4884947E-1,-1.0796424E-1,-1.5756339E-1,1.3736902E-1,1.6470748E-1,7.936515E-2,2.6277855E-1,-2.0075882E-2,-1.6416736E-1,4.932165E-2,-3.337978E-1,-1.1373178E-1,7.020567E-2,2.8794426E-1,-1.7176017E-2,-3.480371E-1,2.851476E-1,1.954165E-1,1.406448E-1,-3.7305856E-1],"split_indices":[14,9,4,4,7,0,6,14,14,16,6,0,9,6,6,14,0,2,6,14,10,19,6,1,0,14,0,1,17,1,4,0,1,0,4,15,16,0,0,10,0,19,17,0,18,8,4,4,7,17,9,6,6,0,0,0,0,0,0,0,0,0,0,0,0,0,0,0,0,0,0,0,0,0,0,0,0,0,0,0,0,0,0,0,0,0,0,0,0],"split_type":[0,0,0,0,0,0,0,0,0,0,0,0,0,0,0,0,0,0,0,0,0,0,0,0,0,0,0,0,0,0,0,0,0,0,0,0,0,0,0,0,0,0,0,0,0,0,0,0,0,0,0,0,0,0,0,0,0,0,0,0,0,0,0,0,0,0,0,0,0,0,0,0,0,0,0,0,0,0,0,0,0,0,0,0,0,0,0,0,0],"sum_hessian":[6.195937E4,3.524045E4,2.6718924E4,2.7717438E4,7.5230107E3,4.76865E3,2.1950273E4,2.696475E4,7.5268805E2,2.2309275E3,5.2920835E3,7.7112994E2,3.9975198E3,1.9918062E4,2.0322119E3,2.650504E4,4.5971176E2,5.263023E2,2.2638577E2,4.5195155E0,2.226408E3,4.9503105E3,3.417729E2,3.7302512E3,2.6726846E2,4.3829025E1,1.9874232E4,3.3871738E2,1.6934945E3,2.493659E4,1.5684484E3,3.551172E2,1.0459455E2,1.9686002E0,5.243337E2,2.2048781E2,5.897962E0,1.8230507E0,2.6964645E0,9.5607434E2,1.2703336E3,4.7141187E3,2.3619177E2,3.2477588E2,1.6997015E1,2.4392947E3,1.2909565E3,3.311083E1,1.0718197E1,3.2863214E2,1.0085248E1,1.6772097E3,1.6284819E1,1.4235054E3,2.3513084E4,1.477968E3,9.048046E1,3.2090325E0,1.0138552E2,5.2323425E2,1.0994307E0,1.8687733E1,2.0180008E2,1.4108644E0,4.4870977E0,9.057276E2,5.0346714E1,6.054335E2,4.108685E3,5.2521706E1,1.8367006E2,1.4141757E1,2.855259E0,2.5421895E2,2.1850757E3,5.1493153E1,1.2394634E3,8.902165E0,2.4208662E1,5.025009E0,5.693188E0,3.0741785E2,2.1214287E1,2.032557E0,8.0526905E0,7.8206537E2,8.951443E2,1.0398303E0,1.5244988E1],"tree_param":{"num_deleted":"0","num_feature":"24","num_nodes":"89","size_leaf_vector":"1"}},{"base_weights":[-6.296385E-2,-8.884395E-1,9.708793E-1,-1.0986603E0,-2.3533438E-1,1.531984E-1,1.2670068E0,-1.1202394E0,-3.4512323E-1,-1.1169834E0,6.0063712E-2,-3.4544408E-1,2.6797578E-1,-8.8210493E-1,1.2908807E0,-1.1301863E0,-5.5415696E-1,-1.1425822E0,1.3492827E0,-1.763312E-1,-1.1190978E0,-5.6811287E-3,1.2061433E0,1.4572135E-1,6.1303467E-1,-1.1734916E0,-1.9875203E-1,3.8978696E-1,-7.9385646E-2,-1.1432116E0,-1.0274447E0,-3.460389E-1,3.9719298E-1,4.0389966E-2,-1.1490878E0,1.4053452E0,-5.988538E-1,-2.5757495E-1,2.2491801E-1,-1.072644E0,-3.4606084E-1,1.0848227E-2,-3.5835284E-1,3.8869306E-1,-2.5875476E-1,2.1136364E-1,2.978003E-3,9.8997754E-1,5.0442904E-1,-3.5640958E-1,-3.2516338E-2,3.3821046E-2,-5.750848E-1,3.0299047E-1,-7.865922E-1,-3.4358373E-1,1.7194942E-1,-3.254699E-1,3.845285E-1,-3.453353E-1,-5.700942E-2,6.4187926E-1,3.849171E-1,7.3678955E-2,-2.747772E-1,-3.4336618E-1,-1.5506727E-2,-9.49921E-2,4.905018E-3,-7.562586E-2,-2.3740873E-1,-2.847493E-1,-8.487454E-3,4.8101064E-2,9.849026E-2,3.8940582E-1,-5.833742E-3,3.0306512E-1,1.2858142E-1,1.10014714E-1,2.5495186E-1,-3.0889176E-2,2.3335455E-1,-2.653047E-1,3.505686E-2,2.8409794E-1,4.0007636E-2,-4.0231225E-1,-4.7369134E-2],"categories":[],"categories_nodes":[],"categories_segments":[],"categories_sizes":[],"default_left":[0,0,0,0,0,0,0,0,0,0,0,0,0,0,0,0,0,0,0,0,0,0,0,0,0,0,0,0,0,0,0,0,0,0,0,0,0,0,0,0,0,0,0,0,0,0,0,0,0,0,0,0,0,0,0,0,0,0,0,0,0,0,0,0,0,0,0,0,0,0,0,0,0,0,0,0,0,0,0,0,0,0,0,0,0,0,0,0,0],"id":3,"left_children":[1,3,5,7,9,11,13,15,17,19,21,-1,23,25,27,29,31,33,35,37,39,41,43,45,47,49,51,-1,53,55,57,-1,-1,-1,59,61,63,-1,-1,65,-1,67,69,-1,71,73,75,77,79,-1,-1,81,83,85,87,-1,-1,-1,-1,-1,-1,-1,-1,-1,-1,-1,-1,-1,-1,-1,-1,-1,-1,-1,-1,-1,-1,-1,-1,-1,-1,-1,-1,-1,-1,-1,-1,-1,-1],"loss_changes":[4.3926395E4,3.9291367E3,5.5330527E3,3.5166406E2,1.8153763E3,9.102779E2,8.6187305E2,1.17884766E2,8.1793494E2,3.2819824E0,3.9347034E2,0E0,2.355618E2,3.6585342E1,1.9129492E2,2.6503906E1,4.1282397E2,3.572876E0,2.2009491E1,3.8725252E0,1.5546875E0,2.8798893E1,3.7479218E1,3.8660492E1,5.9314697E1,1.8756714E0,4.9628105E0,0E0,2.7860334E1,6.576367E1,3.114519E2,0E0,0E0,0E0,5.7818604E-1,1.4197479E1,1.8642955E0,0E0,0E0,5.5536194E1,0E0,8.508546E0,9.977882E0,0E0,2.7013087E0,1.6811783E1,3.7798332E1,3.2684326E0,5.374008E1,0E0,0E0,3.7287579E0,4.731579E0,7.1952486E0,1.2380585E1,0E0,0E0,0E0,0E0,0E0,0E0,0E0,0E0,0E0,0E0,0E0,0E0,0E0,0E0,0E0,0E0,0E0,0E0,0E0,0E0,0E0,0E0,0E0,0E0,0E0,0E0,0E0,0E0,0E0,0E0,0E0,0E0,0E0,0E0],"parents":[2147483647,0,0,1,1,2,2,3,3,4,4,5,5,6,6,7,7,8,8,9,9,10,10,12,12,13,13,14,14,15,15,16,16,17,17,18,18,19,19,20,20,21,21,22,22,23,23,24,24,25,25,26,26,28,28,29,29,30,30,34,34,35,35,36,36,39,39,41,41,42,42,44,44,45,45,46,46,47,47,48,48,51,51,52,52,53,53,54,54],"right_children":[2,4,6,8,10,12,14,16,18,20,22,-1,24,26,28,30,32,34,36,38,40,42,44,46,48,50,52,-1,54,56,58,-1,-1,-1,60,62,64,-1,-1,66,-1,68,70,-1,72,74,76,78,80,-1,-1,82,84,86,88,-1,-1,-1,-1,-1,-1,-1,-1,-1,-1,-1,-1,-1,-1,-1,-1,-1,-1,-1,-1,-1,-1,-1,-1,-1,-1,-1,-1,-1,-1,-1,-1,-1,-1],"split_conditions":[4.2857144E5,2.2085423E1,4E0,4.4E3,8E1,1.7E1,4.4E2,2.5E5,7.335097E3,1.8714525E2,4.28E2,-3.4544408E-1,1.289E3,2.0113792E2,4.6E2,2.1009119E2,1.7E1,5E0,4.41E2,2.15259E5,1.161E3,2E0,4.47E2,3E0,1.408E3,6E0,3.68E2,3.8978696E-1,5.16E2,4.1198207E4,9.42E2,-3.460389E-1,3.9719298E-1,4.0389966E-2,1.408E4,7.160503E1,4.77588E4,-2.5757495E-1,2.2491801E-1,9.66E2,-3.4606084E-1,2.022668E1,3E0,3.8869306E-1,2.6722598E3,1.236E3,4.552365E6,4.9E1,6.281407E0,-3.5640958E-1,-3.2516338E-2,2.96E2,4.25E2,4E0,1.464E3,-3.4358373E-1,1.7194942E-1,-3.254699E-1,3.845285E-1,-3.453353E-1,-5.700942E-2,6.4187926E-1,3.849171E-1,7.3678955E-2,-2.747772E-1,-3.4336618E-1,-1.5506727E-2,-9.49921E-2,4.905018E-3,-7.562586E-2,-2.3740873E-1,-2.847493E-1,-8.487454E-3,4.8101064E-2,9.849026E-2,3.8940582E-1,-5.833742E-3,3.0306512E-1,1.2858142E-1,1.10014714E-1,2.5495186E-1,-3.0889176E-2,2.3335455E-1,-2.653047E-1,3.505686E-2,2.8409794E-1,4.0007636E-2,-4.0231225E-1,-4.7369134E-2],"split_indices":[14,9,2,4,7,0,6,14,14,16,6,0,6,8,6,15,0,2,6,1,10,19,6,1,6,3,7,0,6,14,4,0,0,0,4,15,16,0,0,10,0,15,19,0,17,4,14,1,16,0,0,7,6,18,7,0,0,0,0,0,0,0,0,0,0,0,0,0,0,0,0,0,0,0,0,0,0,0,0,0,0,0,0,0,0,0,0,0,0],"split_type":[0,0,0,0,0,0,0,0,0,0,0,0,0,0,0,0,0,0,0,0,0,0,0,0,0,0,0,0,0,0,0,0,0,0,0,0,0,0,0,0,0,0,0,0,0,0,0,0,0,0,0,0,0,0,0,0,0,0,0,0,0,0,0,0,0,0,0,0,0,0,0,0,0,0,0,0,0,0,0,0,0,0,0,0,0,0,0,0,0],"sum_hessian":[5.146946E4,2.8618812E4,2.2850648E4,2.1649582E4,6.969231E3,6.0756885E3,1.677496E4,2.1046393E4,6.031901E2,1.7483378E3,5.2208936E3,4.9055048E2,5.5851377E3,1.8390656E2,1.6591055E4,2.0681982E4,3.644098E2,4.1037567E2,1.9281444E2,4.1104755E0,1.7442273E3,4.9385864E3,2.8230692E2,4.125053E3,1.4600847E3,1.2842705E2,5.54795E1,1.6489908E4,1.01145256E2,1.8345992E4,2.3359902E3,2.765496E2,8.78602E1,1.9798806E0,4.0839578E2,1.8769176E2,5.1226807E0,2.408748E0,1.7017275E0,7.5625616E2,9.8797107E2,4.7184087E3,2.2017766E2,2.6616095E2,1.6145956E1,2.825316E3,1.2997372E3,3.2477106E2,1.1353136E3,1.2658357E2,1.8434793E0,3.485147E1,2.0628027E1,6.602051E1,3.5124744E1,1.8324252E4,2.1739779E1,2.279797E3,5.6193108E1,4.073334E2,1.0623813E0,2.4441547E1,1.6325021E2,1.4599165E0,3.662764E0,7.0638184E2,4.9874325E1,7.7025505E1,4.6413833E3,1.7806113E2,4.211654E1,3.260329E0,1.2885627E1,1.9686475E3,8.566684E2,2.1153854E1,1.2785834E3,3.126976E2,1.2073449E1,8.1316907E2,3.2214456E2,3.0167053E1,4.684418E0,1.406402E1,6.5640078E0,1.280896E1,5.321155E1,1.8062395E1,1.7062347E1],"tree_param":{"num_deleted":"0","num_feature":"24","num_nodes":"89","size_leaf_vector":"1"}},{"base_weights":[-5.945936E-2,-8.1109643E-1,8.387149E-1,-1.0530844E0,-1.9109744E-1,1.5055642E-1,1.1907536E0,-1.072314E0,-3.7600708E-1,-1.0627325E0,3.8420863E-2,-3.3179796E-1,2.5893092E-1,-1.623599E-1,1.1966512E0,-1.0796195E0,-5.105331E-1,-1.0937016E0,1.201884E0,-1.9342501E-1,-1.0650632E0,1.0652627E0,-7.501478E-3,1.9493812E-1,1.0834355E0,-2.8638005E-1,-7.1393214E-2,3.607952E-1,-9.251911E-2,-1.0945076E0,-9.6414113E-1,-3.3133382E-1,1.1948751E0,3.224575E-2,-1.101631E0,1.2656763E0,-2.4647944E-1,1.9328989E-1,-2.573061E-1,-1.0082273E0,-3.3239478E-1,4.2047936E-1,1.1636317E0,-2.3177562E-3,-6.782436E-1,1.0742803E-1,4.5908418E-1,1.1682463E0,1.1346981E-2,-3.455717E-1,5.8898132E-2,1.06104866E-1,-9.053364E-1,-3.2904315E-1,1.2709263E-1,-3.0556524E-1,3.5427117E-1,7.473195E-2,3.6329913E-1,-3.3125728E-1,-4.909846E-2,-9.370883E-2,3.838369E-1,-3.2914037E-1,-1.1035088E-2,1.652644E-1,-1.8418953E-1,3.6028504E-1,-1.5716393E-2,1.3846153E-3,-5.7220716E-2,-2.555895E-1,-5.7841953E-2,3.0119814E-2,3.4814033E-1,2.3381521E-1,1.11644976E-1,-1.7773941E-1,3.6025622E-1,1.9684307E-1,-1.06129006E-1,6.1676074E-2,-2.438776E-1,-2.9976394E-2,2.3942736E-1,2.232451E-1,-1.3523637E-2,-7.380223E-2,-3.1500712E-1],"categories":[],"categories_nodes":[],"categories_segments":[],"categories_sizes":[],"default_left":[0,0,0,0,0,0,0,0,0,0,0,0,0,0,0,0,0,0,0,0,0,0,0,0,0,0,0,0,0,0,0,0,0,0,0,0,0,0,0,0,0,0,0,0,0,0,0,0,0,0,0,0,0,0,0,0,0,0,0,0,0,0,0,0,0,0,0,0,0,0,0,0,0,0,0,0,0,0,0,0,0,0,0,0,0,0,0,0,0],"id":4,"left_children":[1,3,5,7,9,11,13,15,17,19,21,-1,23,25,27,29,31,33,35,37,39,41,43,45,47,-1,49,-1,51,53,55,-1,57,-1,59,61,-1,-1,-1,63,-1,65,67,69,71,73,75,77,79,81,83,85,87,-1,-1,-1,-1,-1,-1,-1,-1,-1,-1,-1,-1,-1,-1,-1,-1,-1,-1,-1,-1,-1,-1,-1,-1,-1,-1,-1,-1,-1,-1,-1,-1,-1,-1,-1,-1],"loss_changes":[2.8607797E4,3.4609912E3,4.676838E3,2.1563477E2,1.2959308E3,8.9019977E2,1.0211914E2,6.5666016E1,5.219932E2,2.5297852E0,2.4183916E2,0E0,3.1725302E2,3.9897466E0,9.846484E1,2.6326172E1,2.1302411E2,3.1335754E0,1.96566E1,3.241684E0,2.1671143E0,1.3435547E1,1.7069824E1,1.2904427E2,3.936966E1,0E0,1.8632503E0,0E0,9.755914E0,4.9759766E1,2.1445789E2,0E0,5.2885437E-1,0E0,5.746155E-1,3.448578E0,0E0,0E0,0E0,5.094922E1,0E0,4.469476E0,8.681335E0,6.3669314E0,3.0108643E0,3.0941982E1,3.8399597E1,2.3755554E1,7.9451456E0,4.4852266E0,4.2855E0,4.7581434E0,8.7260056E-1,0E0,0E0,0E0,0E0,0E0,0E0,0E0,0E0,0E0,0E0,0E0,0E0,0E0,0E0,0E0,0E0,0E0,0E0,0E0,0E0,0E0,0E0,0E0,0E0,0E0,0E0,0E0,0E0,0E0,0E0,0E0,0E0,0E0,0E0,0E0,0E0],"parents":[2147483647,0,0,1,1,2,2,3,3,4,4,5,5,6,6,7,7,8,8,9,9,10,10,12,12,13,13,14,14,15,15,16,16,17,17,18,18,19,19,20,20,21,21,22,22,23,23,24,24,26,26,28,28,29,29,30,30,32,32,34,34,35,35,39,39,41,41,42,42,43,43,44,44,45,45,46,46,47,47,48,48,49,49,50,50,51,51,52,52],"right_children":[2,4,6,8,10,12,14,16,18,20,22,-1,24,26,28,30,32,34,36,38,40,42,44,46,48,-1,50,-1,52,54,56,-1,58,-1,60,62,-1,-1,-1,64,-1,66,68,70,72,74,76,78,80,82,84,86,88,-1,-1,-1,-1,-1,-1,-1,-1,-1,-1,-1,-1,-1,-1,-1,-1,-1,-1,-1,-1,-1,-1,-1,-1,-1,-1,-1,-1,-1,-1,-1,-1,-1,-1,-1,-1],"split_conditions":[3.529412E5,2.2085423E1,6E0,4.4E3,1.7E1,1.7E1,4.4E2,2.5E5,7.335097E3,1.8714525E2,9.1921E4,-3.3179796E-1,1.0203138E1,1.85E1,4.41E2,2.1009119E2,1.7E1,5E0,4.41E2,7.928118E2,1.161E3,3.75E2,3E0,1.289E3,4.41E2,-2.8638005E-1,6.61E2,3.607952E-1,1.742E3,4.1198207E4,9.42E2,-3.3133382E-1,4.7E1,3.224575E-2,1.408E4,4.3535483E2,-2.4647944E-1,1.9328989E-1,-2.573061E-1,9.66E2,-3.3239478E-1,4.992E3,3.75E2,2E0,4.5E1,3.439189E1,1.408E3,4.25E2,6.835821E6,1.25E2,6.21118E3,9.453333E0,4.78E2,-3.2904315E-1,1.2709263E-1,-3.0556524E-1,3.5427117E-1,7.473195E-2,3.6329913E-1,-3.3125728E-1,-4.909846E-2,-9.370883E-2,3.838369E-1,-3.2914037E-1,-1.1035088E-2,1.652644E-1,-1.8418953E-1,3.6028504E-1,-1.5716393E-2,1.3846153E-3,-5.7220716E-2,-2.555895E-1,-5.7841953E-2,3.0119814E-2,3.4814033E-1,2.3381521E-1,1.11644976E-1,-1.7773941E-1,3.6025622E-1,1.9684307E-1,-1.06129006E-1,6.1676074E-2,-2.438776E-1,-2.9976394E-2,2.3942736E-1,2.232451E-1,-1.3523637E-2,-7.380223E-2,-3.1500712E-1],"split_indices":[14,9,2,4,0,0,6,14,14,16,18,0,17,8,6,15,0,2,6,14,10,6,19,6,6,0,1,0,1,14,4,0,16,0,4,8,0,0,0,10,0,4,7,19,19,9,6,6,14,18,15,16,6,0,0,0,0,0,0,0,0,0,0,0,0,0,0,0,0,0,0,0,0,0,0,0,0,0,0,0,0,0,0,0,0,0,0,0,0],"split_type":[0,0,0,0,0,0,0,0,0,0,0,0,0,0,0,0,0,0,0,0,0,0,0,0,0,0,0,0,0,0,0,0,0,0,0,0,0,0,0,0,0,0,0,0,0,0,0,0,0,0,0,0,0,0,0,0,0,0,0,0,0,0,0,0,0,0,0,0,0,0,0,0,0,0,0,0,0,0,0,0,0,0,0,0,0,0,0,0,0],"sum_hessian":[4.2373566E4,2.3068658E4,1.9304908E4,1.659203E4,6.4766294E3,6.533931E3,1.2770978E4,1.6133246E4,4.5878326E2,1.349196E3,5.127433E3,5.1806104E2,6.01587E3,5.5306946E1,1.2715671E4,1.592523E4,2.0801564E2,3.1555966E2,1.4322362E2,3.832395E0,1.3453636E3,2.1854236E2,4.9088906E3,5.583733E3,4.3213742E2,4.7185497E0,5.0588398E1,1.2656837E4,5.8833714E1,1.4099025E4,1.8262056E3,1.5454672E2,5.346892E1,1.9871142E0,3.1357254E2,1.3920941E2,4.0142026E0,1.7081888E0,2.1242063E0,5.8937463E2,7.559891E2,2.9626019E1,1.8891634E2,4.8722397E3,3.665086E1,4.19527E3,1.3884626E3,4.0037485E2,3.176257E1,1.5763721E1,3.4824677E1,4.7978832E1,1.085488E1,1.4077948E4,2.1077415E1,1.7815415E3,4.4664085E1,1.171916E0,5.2297005E1,3.1254233E2,1.0302117E0,1.0175321E0,1.3819188E2,5.3983887E2,4.953576E1,2.672458E1,2.9014366E0,1.8330333E2,5.613017E0,4.7002617E3,1.7197815E2,2.6435465E1,1.0215395E1,4.168542E3,2.6728146E1,2.9470157E2,1.0937611E3,6.967797E0,3.9340704E2,1.1194901E1,2.0567667E1,7.4903364E0,8.273385E0,2.9377575E1,5.4470997E0,8.439437E0,3.9539394E1,2.4393263E0,8.415554E0],"tree_param":{"num_deleted":"0","num_feature":"24","num_nodes":"89","size_leaf_vector":"1"}},{"base_weights":[-5.5101883E-2,-7.336477E-1,7.332532E-1,-1.0155531E0,-1.4937317E-1,1.101062E-1,1.1273713E0,-1.0342479E0,-3.624484E-1,-1.0188409E0,2.845077E-2,-3.2183018E-1,1.8957746E-1,-1.2827669E-1,1.1342174E0,-1.0588375E0,-8.666247E-1,-1.057913E0,1.1173625E0,-9.45248E-1,-3.2298607E-1,9.586068E-1,-5.3788223E-3,1.3896522E-1,1.0034103E0,-7.54832E-1,-2.0537013E-2,3.423666E-1,-7.492087E-2,-1.061497E0,2.518487E-1,-9.703725E-1,1.0668865E0,2.5762748E-2,-1.0677805E0,1.1806836E0,-2.196558E-1,-3.1847662E-1,2.727068E-3,2.6290053E-1,1.100107E0,-1.5595701E-3,-5.720307E-1,3.652731E-2,2.7793214E-1,1.103747E0,9.409046E-3,-2.066162E-1,-3.0355388E-1,3.7121475E-1,-1.312619E-1,7.943684E-2,-8.1648237E-1,-3.1951097E-1,-1.6094816E-1,-3.1942695E-1,3.2499665E-1,-2.9519662E-1,9.692624E-2,3.4502378E-1,-2.5847635E-1,-3.2132497E-1,-4.230468E-2,-7.736253E-2,3.5911822E-1,1.8090475E-1,-3.5295123E-1,1.0049557E-1,-2.5944602E-1,3.43487E-1,-1.1816358E-2,-2.908091E-2,3.4795078E-3,-2.241952E-1,-4.3904714E-2,1.5374379E-2,-1.7493394E-1,7.566943E-2,2.862878E-1,-1.4154156E-1,3.415925E-1,-2.552355E-1,4.594996E-2,8.1114754E-2,-1.4907047E-1,-3.0248934E-1,-1.4691897E-3,1.2140416E-1,-4.04705E-2,-5.917468E-2,-2.9520163E-1],"categories":[],"categories_nodes":[],"categories_segments":[],"categories_sizes":[],"default_left":[0,0,0,0,0,0,0,0,0,0,0,0,0,0,0,0,0,0,0,0,0,0,0,0,0,0,0,0,0,0,0,0,0,0,0,0,0,0,0,0,0,0,0,0,0,0,0,0,0,0,0,0,0,0,0,0,0,0,0,0,0,0,0,0,0,0,0,0,0,0,0,0,0,0,0,0,0,0,0,0,0,0,0,0,0,0,0,0,0,0,0],"id":5,"left_children":[1,3,5,7,9,11,13,15,17,19,21,-1,23,25,27,29,31,33,35,37,-1,39,41,43,45,47,49,-1,51,53,55,57,59,-1,61,63,-1,-1,65,67,69,71,73,75,77,79,81,83,-1,-1,85,87,89,-1,-1,-1,-1,-1,-1,-1,-1,-1,-1,-1,-1,-1,-1,-1,-1,-1,-1,-1,-1,-1,-1,-1,-1,-1,-1,-1,-1,-1,-1,-1,-1,-1,-1,-1,-1,-1,-1],"loss_changes":[1.8708105E4,3.095623E3,3.9729346E3,1.5441992E2,9.459856E2,5.894887E2,8.5333984E1,4.9881836E1,3.6585632E2,3.3997803E0,1.5986856E2,0E0,2.418471E2,3.6726637E0,8.356055E1,3.7717773E1,3.184193E2,2.8181152E0,1.4189209E1,5.129834E1,0E0,1.7262466E1,1.0610309E1,7.874181E1,3.4279175E1,9.165025E-1,6.798851E0,0E0,6.6701684E0,1.935254E1,2.5854582E1,2.6773804E1,1.3994118E1,0E0,5.823059E-1,2.9094543E0,0E0,0E0,3.7404583E1,2.8461773E0,7.600876E0,6.114375E0,2.3397617E0,2.9088678E1,4.056299E1,1.7705566E1,4.153113E0,6.6140324E-1,0E0,0E0,4.9486084E0,3.447823E0,8.4645414E-1,0E0,0E0,0E0,0E0,0E0,0E0,0E0,0E0,0E0,0E0,0E0,0E0,0E0,0E0,0E0,0E0,0E0,0E0,0E0,0E0,0E0,0E0,0E0,0E0,0E0,0E0,0E0,0E0,0E0,0E0,0E0,0E0,0E0,0E0,0E0,0E0,0E0,0E0],"parents":[2147483647,0,0,1,1,2,2,3,3,4,4,5,5,6,6,7,7,8,8,9,9,10,10,12,12,13,13,14,14,15,15,16,16,17,17,18,18,19,19,21,21,22,22,23,23,24,24,25,25,26,26,28,28,29,29,30,30,31,31,32,32,34,34,35,35,38,38,39,39,40,40,41,41,42,42,43,43,44,44,45,45,46,46,47,47,50,50,51,51,52,52],"right_children":[2,4,6,8,10,12,14,16,18,20,22,-1,24,26,28,30,32,34,36,38,-1,40,42,44,46,48,50,-1,52,54,56,58,60,-1,62,64,-1,-1,66,68,70,72,74,76,78,80,82,84,-1,-1,86,88,90,-1,-1,-1,-1,-1,-1,-1,-1,-1,-1,-1,-1,-1,-1,-1,-1,-1,-1,-1,-1,-1,-1,-1,-1,-1,-1,-1,-1,-1,-1,-1,-1,-1,-1,-1,-1,-1,-1],"split_conditions":[3.529412E5,2.2085423E1,6E0,4.4E3,1.7E1,1.7E1,4.4E2,2.1009119E2,7.335097E3,1.161E3,5.7739E4,-3.2183018E-1,1.0203138E1,1.1461538E1,4.41E2,4.1198207E4,1.7E1,5E0,4.41E2,9.66E2,-3.2298607E-1,3.75E2,3E0,1.236E3,4.41E2,5.3E1,1.25E2,3.423666E-1,1.742E3,3.4641016E0,1.7E1,4.82E2,1E0,2.5762748E-2,1.408E4,4.3535483E2,-2.196558E-1,-3.1847662E-1,6.379113E5,2.7268E4,3.75E2,1E0,4.5E1,5.3E1,6.4E1,4.25E2,4.9E1,3.764706E7,-3.0355388E-1,3.7121475E-1,7.5E1,1.1407407E7,4.78E2,-3.1951097E-1,-1.6094816E-1,-3.1942695E-1,3.2499665E-1,-2.9519662E-1,9.692624E-2,3.4502378E-1,-2.5847635E-1,-3.2132497E-1,-4.230468E-2,-7.736253E-2,3.5911822E-1,1.8090475E-1,-3.5295123E-1,1.0049557E-1,-2.5944602E-1,3.43487E-1,-1.1816358E-2,-2.908091E-2,3.4795078E-3,-2.241952E-1,-4.3904714E-2,1.5374379E-2,-1.7493394E-1,7.566943E-2,2.862878E-1,-1.4154156E-1,3.415925E-1,-2.552355E-1,4.594996E-2,8.1114754E-2,-1.4907047E-1,-3.0248934E-1,-1.4691897E-3,1.2140416E-1,-4.04705E-2,-5.917468E-2,-2.9520163E-1],"split_indices":[14,9,2,4,0,0,6,15,14,10,18,0,17,16,6,14,0,2,6,10,0,6,19,4,6,1,18,0,1,9,0,22,3,0,4,8,0,0,16,18,7,19,19,1,18,6,18,14,0,0,16,14,6,0,0,0,0,0,0,0,0,0,0,0,0,0,0,0,0,0,0,0,0,0,0,0,0,0,0,0,0,0,0,0,0,0,0,0,0,0,0],"split_type":[0,0,0,0,0,0,0,0,0,0,0,0,0,0,0,0,0,0,0,0,0,0,0,0,0,0,0,0,0,0,0,0,0,0,0,0,0,0,0,0,0,0,0,0,0,0,0,0,0,0,0,0,0,0,0,0,0,0,0,0,0,0,0,0,0,0,0,0,0,0,0,0,0,0,0,0,0,0,0,0,0,0,0,0,0,0,0,0,0,0,0],"sum_hessian":[3.4970664E4,1.8794287E4,1.6176379E4,1.2677032E4,6.117254E3,6.2676963E3,9.908683E3,1.2323689E4,3.5334302E2,1.0378706E3,5.0793833E3,3.937977E2,5.8738984E3,5.3635544E1,9.855047E3,1.0742496E4,1.581194E3,2.4056848E2,1.1277452E2,4.6410468E2,5.7376587E2,1.7729382E2,4.90209E3,5.531091E3,3.4280762E2,6.9884496E0,4.6647095E1,9.798341E3,5.670557E1,1.0720932E4,2.1563808E1,1.5011442E3,8.004978E1,1.991749E0,2.3857674E2,1.0939105E2,3.3834705E0,4.1326654E2,5.0838135E1,3.0448284E1,1.4684554E2,4.8702666E3,3.1823E1,3.1847505E3,2.3463406E3,3.1127628E2,3.153132E1,2.8063545E0,4.182095E0,2.9506109E0,4.3696484E1,4.7674824E1,9.030744E0,1.0648115E4,7.281656E1,8.23827E0,1.3325539E1,1.485743E3,1.5401158E1,7.712625E1,2.923527E0,2.3757434E2,1.0023907E0,1.0653507E0,1.083257E2,3.4012615E1,1.6825518E1,2.9279661E1,1.1686233E0,1.4128008E2,5.5654655E0,5.8966235E2,4.2806045E3,2.2005875E1,9.817124E0,3.1117432E3,7.3007484E1,2.2617695E3,8.4571045E1,6.4733057E0,3.0480298E2,3.8107772E0,2.7720543E1,1.0876632E0,1.7186915E0,4.6240315E0,3.9072453E1,1.8585136E1,2.908969E1,2.3865442E0,6.6441994E0],"tree_param":{"num_deleted":"0","num_feature":"24","num_nodes":"91","size_leaf_vector":"1"}},{"base_weights":[-5.0273135E-2,-6.5738475E-1,6.3800454E-1,-9.8516285E-1,-1.15887955E-1,7.953567E-2,1.0834169E0,-1.003388E0,-3.5179573E-1,-9.823219E-1,2.1302046E-2,-3.1448781E-1,1.3796096E-1,-1.0407976E-1,1.091675E0,-1.0312672E0,-8.183401E-1,-1.0298146E0,1.0541242E0,-8.940784E-1,-3.163179E-1,-2.4007722E-3,9.545255E-1,9.84879E-2,9.3542916E-1,-2.5920385E-1,-3.502877E-2,3.3006474E-1,-6.269375E-2,-1.0339713E0,2.2614683E-1,-9.161877E-1,1.009017E0,2.0592887E-2,-1.0422674E0,1.1189489E0,-1.946921E-1,-3.0914655E-1,-1.751019E-2,5.128051E-3,-1.8500493E-1,3.278131E-1,-1.0903652E-1,4.8390586E-2,2.628222E-1,1.0578673E0,-1.1142096E-3,4.805521E-3,-2.5838718E-1,2.3589435E-1,-3.8419938E-1,-3.1156376E-1,-1.3355707E-1,-2.9710472E-1,2.9694495E-1,-2.246103E-1,-3.180011E-1,-2.4207881E-1,3.2872885E-1,-3.1420842E-1,-3.226248E-2,-6.397457E-2,3.4164697E-1,1.2020486E-1,-3.2854223E-1,5.768216E-3,-2.085189E-2,-1.6882457E-1,-2.4572333E-2,-1.5969825E-1,5.163645E-2,1.3494457E-1,1.0182978E-2,1.21197976E-1,1.5802829E-2,-1.1185091E-1,3.2897678E-1,1.004904E-1,-1.11740634E-1,-2.176343E-2,3.815947E-1,-1.3600019E-2,2.536023E-1,-2.371801E-1,-2.3214482E-2],"categories":[],"categories_nodes":[],"categories_segments":[],"categories_sizes":[],"default_left":[0,0,0,0,0,0,0,0,0,0,0,0,0,0,0,0,0,0,0,0,0,0,0,0,0,0,0,0,0,0,0,0,0,0,0,0,0,0,0,0,0,0,0,0,0,0,0,0,0,0,0,0,0,0,0,0,0,0,0,0,0,0,0,0,0,0,0,0,0,0,0,0,0,0,0,0,0,0,0,0,0,0,0,0,0],"id":6,"left_children":[1,3,5,7,9,11,13,15,17,19,21,-1,23,25,27,29,31,33,35,37,-1,39,41,43,45,-1,47,-1,49,51,53,55,57,-1,59,61,-1,-1,63,65,67,-1,69,71,73,75,77,79,-1,81,83,-1,-1,-1,-1,-1,-1,-1,-1,-1,-1,-1,-1,-1,-1,-1,-1,-1,-1,-1,-1,-1,-1,-1,-1,-1,-1,-1,-1,-1,-1,-1,-1,-1,-1],"loss_changes":[1.2171207E4,2.7467642E3,3.3956348E3,1.10927734E2,6.9381195E2,3.9932758E2,7.4586914E1,4.7498047E1,2.5959024E2,4.131653E0,1.114844E2,0E0,1.8123984E2,2.769739E0,7.4424805E1,2.7910156E1,2.211576E2,2.5810547E0,1.0521706E1,4.3658173E1,0E0,6.7594843E0,1.8466476E1,4.5184296E1,3.1141464E1,0E0,1.6484116E0,0E0,5.4987454E0,2.1414062E1,1.7969318E1,2.7379578E1,1.0820457E1,0E0,7.514038E-1,2.5155716E0,0E0,0E0,2.3064188E1,4.9706335E0,7.5359874E0,0E0,1.908227E0,2.43923E1,3.8022453E1,1.3714172E1,4.1681256E0,4.8611784E0,0E0,5.150734E0,3.3687358E0,0E0,0E0,0E0,0E0,0E0,0E0,0E0,0E0,0E0,0E0,0E0,0E0,0E0,0E0,0E0,0E0,0E0,0E0,0E0,0E0,0E0,0E0,0E0,0E0,0E0,0E0,0E0,0E0,0E0,0E0,0E0,0E0,0E0,0E0],"parents":[2147483647,0,0,1,1,2,2,3,3,4,4,5,5,6,6,7,7,8,8,9,9,10,10,12,12,13,13,14,14,15,15,16,16,17,17,18,18,19,19,21,21,22,22,23,23,24,24,26,26,28,28,29,29,30,30,31,31,32,32,34,34,35,35,38,38,39,39,40,40,42,42,43,43,44,44,45,45,46,46,47,47,49,49,50,50],"right_children":[2,4,6,8,10,12,14,16,18,20,22,-1,24,26,28,30,32,34,36,38,-1,40,42,44,46,-1,48,-1,50,52,54,56,58,-1,60,62,-1,-1,64,66,68,-1,70,72,74,76,78,80,-1,82,84,-1,-1,-1,-1,-1,-1,-1,-1,-1,-1,-1,-1,-1,-1,-1,-1,-1,-1,-1,-1,-1,-1,-1,-1,-1,-1,-1,-1,-1,-1,-1,-1,-1,-1],"split_conditions":[3.529412E5,2.2085423E1,6E0,4.4E3,8E1,1.7E1,4.4E2,2.1009119E2,7.335097E3,1.161E3,4.28E2,-3.1448781E-1,1.0203138E1,1.85E1,4.41E2,4.1198207E4,1.7E1,5E0,4.41E2,9.66E2,-3.163179E-1,2E0,4.47E2,1.289E3,4.41E2,-2.5920385E-1,4.35E2,3.3006474E-1,2.6066929E1,3.4641016E0,1.7E1,8.4955424E-1,4.6E1,2.0592887E-2,3.7787908E7,4.3535483E2,-1.946921E-1,-3.0914655E-1,6.379113E5,1.10129E5,5.9879566E4,3.278131E-1,4.4E2,3.86E2,2.714E9,4.25E2,4.4E2,4.29E2,-2.5838718E-1,5.076923E7,4.86E2,-3.1156376E-1,-1.3355707E-1,-2.9710472E-1,2.9694495E-1,-2.246103E-1,-3.180011E-1,-2.4207881E-1,3.2872885E-1,-3.1420842E-1,-3.226248E-2,-6.397457E-2,3.4164697E-1,1.2020486E-1,-3.2854223E-1,5.768216E-3,-2.085189E-2,-1.6882457E-1,-2.4572333E-2,-1.5969825E-1,5.163645E-2,1.3494457E-1,1.0182978E-2,1.21197976E-1,1.5802829E-2,-1.1185091E-1,3.2897678E-1,1.004904E-1,-1.11740634E-1,-2.176343E-2,3.815947E-1,-1.3600019E-2,2.536023E-1,-2.371801E-1,-2.3214482E-2],"split_indices":[14,9,2,4,7,0,6,15,14,10,6,0,17,8,6,14,0,2,6,10,0,19,6,6,6,0,6,0,9,9,0,14,16,0,18,8,0,0,16,18,17,0,8,4,14,6,7,8,0,14,6,0,0,0,0,0,0,0,0,0,0,0,0,0,0,0,0,0,0,0,0,0,0,0,0,0,0,0,0,0,0,0,0,0,0],"split_type":[0,0,0,0,0,0,0,0,0,0,0,0,0,0,0,0,0,0,0,0,0,0,0,0,0,0,0,0,0,0,0,0,0,0,0,0,0,0,0,0,0,0,0,0,0,0,0,0,0,0,0,0,0,0,0,0,0,0,0,0,0,0,0,0,0,0,0,0,0,0,0,0,0,0,0,0,0,0,0,0,0,0,0,0,0],"sum_hessian":[2.9125373E4,1.5475174E4,1.3650199E4,9.639429E3,5.835745E3,6.0569844E3,7.593215E3,9.369244E3,2.701852E2,7.968729E2,5.0388726E3,2.9748373E2,5.759501E3,5.2359707E1,7.540855E3,8.1385317E3,1.2307118E3,1.8245972E2,8.7725494E1,3.6426877E2,4.3260416E2,4.9150337E3,1.2383886E2,5.488933E3,2.7056757E2,3.4023907E0,4.8957317E1,7.4855195E3,5.5335842E1,8.121244E3,1.7287445E1,1.1686348E3,6.207704E1,1.994718E0,1.8046501E2,8.483927E1,2.886229E0,3.1506348E2,4.9205273E1,4.7213433E3,1.9369044E2,1.0957479E2,1.4264069E1,4.2075547E3,1.2813784E3,2.391703E2,3.1397253E1,4.7654083E1,1.3032317E0,2.8828539E1,2.6507303E1,8.0578735E3,6.3370632E1,6.5525928E0,1.0734853E1,5.427542E2,6.2588055E2,2.4516542E0,5.9625385E1,1.7936702E2,1.0979805E0,1.1040362E0,8.373523E1,3.590133E1,1.3303946E1,3.9717698E3,7.4957324E2,4.0573273E1,1.5311717E2,5.3364935E0,8.927574E0,1.4512292E2,4.062432E3,7.659258E2,5.1545264E2,6.0751767E0,2.3309512E2,1.6532785E1,1.4864468E1,4.580107E1,1.8530127E0,2.035937E1,8.469169E0,1.0724803E1,1.5782501E1],"tree_param":{"num_deleted":"0","num_feature":"24","num_nodes":"85","size_leaf_vector":"1"}},{"base_weights":[-4.483862E-2,-5.8368367E-1,5.462221E-1,-9.631726E-1,-9.148159E-2,5.4267623E-2,1.0501275E0,-9.8629874E-1,-5.1280355E-1,-9.50165E-1,1.318891E-2,-3.0937186E-1,1.0356312E-1,1.0613075E0,-8.350628E-2,-8.185053E-1,-1.0161673E0,1.2134061E0,-1.0208774E0,-8.463114E-1,-3.1146455E-1,-2.3136032E-3,8.912973E-1,6.946529E-2,9.0504086E-1,-4.5505147E-2,3.215875E-1,7.2057E-2,-7.9603964E-1,-1.0071534E0,-7.2015864E-1,-1.0220616E0,-8.023075E-1,-2.8488964E-1,1.3869755E0,-3.1158677E-1,6.4183587E-1,-1.0096985E0,-2.8449753E-2,1.9583432E-4,-4.4247067E-1,3.178767E-1,-2.5871528E-2,6.2361743E-2,3.233138E-1,9.646176E-1,-5.791978E-1,-2.9197297E-1,1.7479335E-1,3.5609707E-1,-1.20231286E-1,-2.5500095E-1,-2.8574982E-1,-3.054455E-1,1.09668635E-1,1.8598806E0,-2.2321175E-1,-3.096888E-1,-2.6424813E-1,-3.1091404E-1,1.5984318E0,3.7632695E-1,1.3013391E0,3.277096E-1,4.6832706E-3,-3.0645174E-1,-1.9480668E-1,9.394481E-2,-3.2457048E-1,-1.7642912E-3,4.328752E-2,-1.9831058E-1,-4.2278655E-2,-1.4856209E-1,1.00854896E-1,-1.958066E-3,3.9343305E-2,1.496078E-1,3.1705186E-1,2.0970254E-1,-2.5525656E-1,-1.8811797E-1,-1.4192278E-3,-5.677941E-2,1.1982239E-1,4.664518E-2,2.6782104E-1,3.523665E-2,-2.4916598E-1,-2.4207726E-1,8.8527545E-2],"categories":[],"categories_nodes":[],"categories_segments":[],"categories_sizes":[],"default_left":[0,0,0,0,0,0,0,0,0,0,0,0,0,0,0,0,0,0,0,0,0,0,0,0,0,0,0,0,0,0,0,0,0,0,0,0,0,0,0,0,0,0,0,0,0,0,0,0,0,0,0,0,0,0,0,0,0,0,0,0,0,0,0,0,0,0,0,0,0,0,0,0,0,0,0,0,0,0,0,0,0,0,0,0,0,0,0,0,0,0,0],"id":7,"left_children":[1,3,5,7,9,11,13,15,17,19,21,-1,23,25,27,29,31,33,35,37,-1,39,41,43,45,47,-1,49,51,53,55,57,59,-1,61,-1,63,65,67,69,71,-1,73,75,-1,77,79,81,83,85,87,89,-1,-1,-1,-1,-1,-1,-1,-1,-1,-1,-1,-1,-1,-1,-1,-1,-1,-1,-1,-1,-1,-1,-1,-1,-1,-1,-1,-1,-1,-1,-1,-1,-1,-1,-1,-1,-1,-1,-1],"loss_changes":[7.8333076E3,2.4030586E3,2.9076206E3,7.5157715E1,5.0353308E2,3.1775046E2,7.35249E1,3.379248E1,3.1425095E2,4.687622E0,6.799176E1,0E0,1.5514021E2,6.768701E1,6.4322705E0,1.8738708E1,6.567383E0,3.1958267E1,8.81839E0,3.8015167E1,0E0,5.4221535E0,1.3401718E1,3.8955414E1,2.1044281E1,3.0724366E0,0E0,2.6711853E0,6.365695E-1,5.7619324E0,1.19147705E2,7.330078E0,2.377634E2,0E0,2.426883E1,0E0,9.8043203E-1,3.461609E-1,1.7768238E1,4.275765E0,1.7409062E0,0E0,2.6151416E0,2.5641943E1,0E0,9.059357E0,3.9160721E0,2.560945E0,2.5294807E0,1.9797957E0,5.0687037E0,1.3602751E0,0E0,0E0,0E0,0E0,0E0,0E0,0E0,0E0,0E0,0E0,0E0,0E0,0E0,0E0,0E0,0E0,0E0,0E0,0E0,0E0,0E0,0E0,0E0,0E0,0E0,0E0,0E0,0E0,0E0,0E0,0E0,0E0,0E0,0E0,0E0,0E0,0E0,0E0,0E0],"parents":[2147483647,0,0,1,1,2,2,3,3,4,4,5,5,6,6,7,7,8,8,9,9,10,10,12,12,13,13,14,14,15,15,16,16,17,17,18,18,19,19,21,21,22,22,23,23,24,24,25,25,27,27,28,28,29,29,30,30,31,31,32,32,34,34,36,36,37,37,38,38,39,39,40,40,42,42,43,43,45,45,46,46,47,47,48,48,49,49,50,50,51,51],"right_children":[2,4,6,8,10,12,14,16,18,20,22,-1,24,26,28,30,32,34,36,38,-1,40,42,44,46,48,-1,50,52,54,56,58,60,-1,62,-1,64,66,68,70,72,-1,74,76,-1,78,80,82,84,86,88,90,-1,-1,-1,-1,-1,-1,-1,-1,-1,-1,-1,-1,-1,-1,-1,-1,-1,-1,-1,-1,-1,-1,-1,-1,-1,-1,-1,-1,-1,-1,-1,-1,-1,-1,-1,-1,-1,-1,-1],"split_conditions":[2.9268294E5,2.2085423E1,6E0,3.52E3,1.7E1,1.7E1,4.41E2,1E0,4.41E2,1.161E3,4.28E2,-3.0937186E-1,9.8E1,4.4E2,1.742E3,1E0,3.4641016E0,4.18E2,5.17E2,9.66E2,-3.1146455E-1,3E0,4.47E2,3.439189E1,5.872E3,3.098817E1,3.215875E-1,1.1407407E7,2.4873611E1,9.1E1,6E0,2.3303963E4,8.3E1,-2.8488964E-1,5.206958E4,-3.1158677E-1,4.762E3,4.7E1,3.096E3,1.11182E5,4E0,3.178767E-1,4.4E2,1.092E3,3.233138E-1,2.22E2,1.58E2,2.6532662E6,1E0,4.93E2,5.201797E1,3.205E3,-2.8574982E-1,-3.054455E-1,1.09668635E-1,1.8598806E0,-2.2321175E-1,-3.096888E-1,-2.6424813E-1,-3.1091404E-1,1.5984318E0,3.7632695E-1,1.3013391E0,3.277096E-1,4.6832706E-3,-3.0645174E-1,-1.9480668E-1,9.394481E-2,-3.2457048E-1,-1.7642912E-3,4.328752E-2,-1.9831058E-1,-4.2278655E-2,-1.4856209E-1,1.00854896E-1,-1.958066E-3,3.9343305E-2,1.496078E-1,3.1705186E-1,2.0970254E-1,-2.5525656E-1,-1.8811797E-1,-1.4192278E-3,-5.677941E-2,1.1982239E-1,4.664518E-2,2.6782104E-1,3.523665E-2,-2.4916598E-1,-2.4207726E-1,8.8527545E-2],"split_indices":[14,9,2,4,0,0,6,6,6,10,6,0,18,6,1,3,9,6,6,10,0,19,6,9,4,9,0,14,9,19,0,14,6,0,16,0,4,11,4,18,19,0,8,4,0,1,1,14,19,6,17,1,0,0,0,0,0,0,0,0,0,0,0,0,0,0,0,0,0,0,0,0,0,0,0,0,0,0,0,0,0,0,0,0,0,0,0,0,0,0,0],"split_type":[0,0,0,0,0,0,0,0,0,0,0,0,0,0,0,0,0,0,0,0,0,0,0,0,0,0,0,0,0,0,0,0,0,0,0,0,0,0,0,0,0,0,0,0,0,0,0,0,0,0,0,0,0,0,0,0,0,0,0,0,0,0,0,0,0,0,0,0,0,0,0,0,0,0,0,0,0,0,0,0,0,0,0,0,0,0,0,0,0,0,0],"sum_hessian":[2.4593133E4,1.2864827E4,1.1728307E4,7.26361E3,5.601217E3,5.9350874E3,5.793219E3,6.9077144E3,3.5589545E2,6.077068E2,4.9935103E3,2.569532E2,5.6781343E3,5.7367065E3,5.6512436E1,1.0481111E3,5.8596035E3,8.061457E1,2.7528088E2,2.8369986E2,3.240069E2,4.907862E3,8.56482E1,5.447466E3,2.3066869E2,5.464635E1,5.68206E3,4.7123177E1,9.389257E0,3.5599753E2,6.921136E2,5.6987583E3,1.6084506E2,5.656133E0,7.495844E1,2.7274536E2,2.5355158E0,2.3626567E2,4.743419E1,4.8810337E3,2.6828348E1,7.2237946E1,1.341025E1,5.4104087E3,3.705685E1,2.2210362E2,8.565066E0,2.5637741E1,2.900861E1,1.8679188E1,2.844399E1,2.696065E0,6.693193E0,3.534242E2,2.5733485E0,1.4908992E0,6.906227E2,5.307824E3,3.9093396E2,1.557299E2,5.115163E0,7.309987E1,1.8585744E0,1.0417075E0,1.4938083E0,2.2699304E2,9.272632E0,3.634988E1,1.1084308E1,4.684441E3,1.965928E2,1.4863066E1,1.1965282E1,5.6797523E0,7.730497E0,2.7035732E3,2.7068357E3,3.775657E1,1.8434706E2,1.2255352E0,7.339531E0,1.1287314E1,1.4350428E1,1.1128609E1,1.7880001E1,1.4535199E1,4.143988E0,2.1937834E1,6.506158E0,1.1127374E0,1.5833275E0],"tree_param":{"num_deleted":"0","num_feature":"24","num_nodes":"91","size_leaf_vector":"1"}},{"base_weights":[-3.949586E-2,-9.6122795E-1,2.3116344E-1,-5.539575E-1,-9.9342585E-1,-4.920641E-2,9.67496E-1,1.7464172E0,-7.031524E-1,-1.0211505E0,-8.5920507E-1,-9.707525E-1,6.566854E-2,-1.9874092E-2,1.0358063E0,1.8908942E0,4.9225622E-1,-5.875931E-1,-9.4542986E-1,-1.0218463E0,7.156026E-2,-9.2640126E-1,-2.3386936E-1,-6.5640235E-1,-1.0219339E0,4.4520136E-2,3.1467372E-1,9.103454E-2,-3.0706698E-1,1.0506301E0,-5.293822E-1,-6.246642E-1,3.8031068E0,5.0088185E-1,-6.969669E-1,-2.860354E-1,-8.410634E-2,-3.0747175E-1,-6.739544E-1,-3.0511838E-1,-7.4403125E-1,2.180609E-1,-3.0183673E-1,-3.0403998E-1,-1.21968865E-1,-1.0241863E0,1.446972E-1,4.3265425E-2,1.5977846E0,-2.6297066E-1,2.2758462E-1,-1.151782E-1,1.0554769E0,8.434877E-1,-7.924429E-1,6.684207E-2,-2.3831387E-1,1.9802866E0,-2.0210968E-1,1.6749743E0,-2.606751E-1,-7.260292E-2,-2.9178035E-1,-2.929402E-1,1.0546466E0,2.8597172E-2,-2.5180185E-1,7.753285E-1,1.5435838E-2,1.06078E-1,-4.7163457E-1,-3.077646E-1,-9.127336E-3,-3.5333328E-3,3.528745E-2,-1.4237969E-1,9.271256E-2,3.6373436E-1,6.191935E-2,-8.0216944E-2,2.3544188E-1,6.15409E-1,3.1567398E-1,3.391198E-2,3.0254915E-1,-3.0004454E-1,-1.1771751E-1],"categories":[],"categories_nodes":[],"categories_segments":[],"categories_sizes":[],"default_left":[0,0,0,0,0,0,0,0,0,0,0,0,0,0,0,0,0,0,0,0,0,0,0,0,0,0,0,0,0,0,0,0,0,0,0,0,0,0,0,0,0,0,0,0,0,0,0,0,0,0,0,0,0,0,0,0,0,0,0,0,0,0,0,0,0,0,0,0,0,0,0,0,0,0,0,0,0,0,0,0,0,0,0,0,0,0,0],"id":8,"left_children":[1,3,5,7,9,11,13,15,17,19,21,23,25,27,29,-1,31,33,35,37,-1,39,41,43,45,47,-1,49,-1,51,53,55,57,59,61,-1,-1,-1,63,-1,65,67,-1,-1,69,71,-1,73,-1,75,77,79,81,83,85,-1,-1,-1,-1,-1,-1,-1,-1,-1,-1,-1,-1,-1,-1,-1,-1,-1,-1,-1,-1,-1,-1,-1,-1,-1,-1,-1,-1,-1,-1,-1,-1],"loss_changes":[5.280291E3,6.2450684E1,3.377774E3,1.2280912E2,1.5685547E1,1.2545808E3,3.0433838E2,1.21839264E2,8.778519E0,3.4726562E0,3.20683E1,2.0462646E1,2.1907858E2,3.270191E1,9.846826E1,0E0,6.978649E1,2.7536377E1,2.9830933E-1,3.2280273E0,0E0,1.0708191E1,2.6704475E1,3.5507034E1,4.3150635E0,6.81372E1,0E0,1.2855541E1,0E0,2.3744629E1,1.5207221E1,2.2610378E0,6.3810783E1,1.5406918E2,2.5839874E1,0E0,0E0,0E0,4.781353E1,0E0,1.8797821E1,1.9064955E1,0E0,0E0,5.2913643E1,1.8670654E0,0E0,4.2222946E1,0E0,9.122433E0,3.7468271E0,2.7045052E0,1.1234863E1,7.246332E-1,2.4575844E0,0E0,0E0,0E0,0E0,0E0,0E0,0E0,0E0,0E0,0E0,0E0,0E0,0E0,0E0,0E0,0E0,0E0,0E0,0E0,0E0,0E0,0E0,0E0,0E0,0E0,0E0,0E0,0E0,0E0,0E0,0E0,0E0],"parents":[2147483647,0,0,1,1,2,2,3,3,4,4,5,5,6,6,7,7,8,8,9,9,10,10,11,11,12,12,13,13,14,14,16,16,17,17,18,18,19,19,21,21,22,22,23,23,24,24,25,25,27,27,29,29,30,30,31,31,32,32,33,33,34,34,38,38,40,40,41,41,44,44,45,45,47,47,49,49,50,50,51,51,52,52,53,53,54,54],"right_children":[2,4,6,8,10,12,14,16,18,20,22,24,26,28,30,-1,32,34,36,38,-1,40,42,44,46,48,-1,50,-1,52,54,56,58,60,62,-1,-1,-1,64,-1,66,68,-1,-1,70,72,-1,74,-1,76,78,80,82,84,86,-1,-1,-1,-1,-1,-1,-1,-1,-1,-1,-1,-1,-1,-1,-1,-1,-1,-1,-1,-1,-1,-1,-1,-1,-1,-1,-1,-1,-1,-1,-1,-1],"split_conditions":[6.422787E3,2.606E3,3.096E3,1.1888112E4,1.9942983E0,8E1,3.68E2,2.22E2,4.7619047E4,5.27E2,8.628038E4,5E1,3.718064E1,1E0,4.86E2,1.8908942E0,4.82E2,2E0,8.1E1,1.9566916E7,7.156026E-2,1.02551E5,6.154303E6,1.7E1,1.540931E6,9.228808E4,3.1467372E-1,2.022668E1,-3.0706698E-1,4.28E2,2.09E2,4.8348105E3,1.106E3,2E0,1.34E2,-2.860354E-1,-8.410634E-2,-3.0747175E-1,8E1,-3.0511838E-1,8.4955424E-1,6E0,-3.0183673E-1,-3.0403998E-1,8.6E1,9.62E2,1.446972E-1,4.26E2,1.5977846E0,5.206958E4,3.52E3,1.0227273E5,6.467614E1,4.8142856E7,1.343E3,6.684207E-2,-2.3831387E-1,1.9802866E0,-2.0210968E-1,1.6749743E0,-2.606751E-1,-7.260292E-2,-2.9178035E-1,-2.929402E-1,1.0546466E0,2.8597172E-2,-2.5180185E-1,7.753285E-1,1.5435838E-2,1.06078E-1,-4.7163457E-1,-3.077646E-1,-9.127336E-3,-3.5333328E-3,3.528745E-2,-1.4237969E-1,9.271256E-2,3.6373436E-1,6.191935E-2,-8.0216944E-2,2.3544188E-1,6.15409E-1,3.1567398E-1,3.391198E-2,3.0254915E-1,-3.0004454E-1,-1.1771751E-1],"split_indices":[14,1,4,15,15,7,8,1,15,7,20,1,9,3,6,0,22,3,1,17,0,1,22,0,14,17,0,15,0,6,1,15,1,2,1,0,0,0,7,0,14,0,0,0,4,6,0,6,0,16,4,14,15,14,7,0,0,0,0,0,0,0,0,0,0,0,0,0,0,0,0,0,0,0,0,0,0,0,0,0,0,0,0,0,0,0,0],"split_type":[0,0,0,0,0,0,0,0,0,0,0,0,0,0,0,0,0,0,0,0,0,0,0,0,0,0,0,0,0,0,0,0,0,0,0,0,0,0,0,0,0,0,0,0,0,0,0,0,0,0,0,0,0,0,0,0,0,0,0,0,0,0,0,0,0,0,0,0,0,0,0,0,0,0,0,0,0,0,0,0,0,0,0,0,0,0,0],"sum_hessian":[2.116369E4,4.803338E3,1.6360352E4,3.5325308E2,4.4500845E3,1.1849433E4,4.510919E3,2.0863394E1,3.323897E2,3.6827651E3,7.673196E2,1.3125428E3,1.053689E4,2.9193564E2,4.2189834E3,3.6341827E0,1.7229212E1,2.2736736E2,1.0502235E2,3.6809207E3,1.8445455E0,6.9243207E2,7.4887505E1,1.857169E2,1.1268259E3,1.0316049E4,2.2084064E2,2.6370508E2,2.823056E1,4.179726E3,3.925719E1,1.3489752E1,3.7394598E0,2.0433739E1,2.0693362E2,1.0334235E2,1.6800011E0,3.6469023E3,3.4018272E1,4.5945184E2,2.3298022E2,4.769408E1,2.7193426E1,1.1079591E2,7.4921E1,1.12546E3,1.3660132E0,1.0314606E4,1.4422525E0,7.314676E1,1.9055832E2,1.7210754E1,4.1625156E3,5.95783E0,3.3299362E1,2.1985419E0,1.129121E1,2.0092618E0,1.7301978E0,3.6850677E0,1.6748672E1,7.877951E1,1.281541E2,3.244257E1,1.5757034E0,2.3757116E1,2.0922311E2,2.1825714E0,4.551151E1,5.6988354E1,1.7932642E1,1.1235105E3,1.9494045E0,5.9276284E3,4.386978E3,5.351722E1,1.9629538E1,2.8289413E0,1.8772937E2,1.5322246E1,1.888509E0,1.14078E1,4.151108E3,1.4083843E0,4.5494456E0,2.0931652E1,1.2367709E1],"tree_param":{"num_deleted":"0","num_feature":"24","num_nodes":"87","size_leaf_vector":"1"}},{"base_weights":[-3.5307724E-2,-9.342633E-1,1.8619871E-1,-1.008523E0,-7.009187E-1,-3.9126165E-2,9.332518E-1,-1.0097545E0,1.4961098E-1,-5.963177E-1,-1.0112097E0,-9.411233E-1,4.7272544E-2,-1.918576E-2,1.0192472E0,-1.0133944E0,-6.192671E-1,-6.524616E-1,-6.179438E-2,-3.0585402E-1,-6.314246E-1,-5.7342255E-1,-1.0087912E0,3.1316698E-2,1.0291315E0,6.335666E-2,-3.013563E-1,1.0357853E0,-4.396795E-1,-9.365026E-1,-3.0583286E-1,-9.156934E-1,8.8949966E-1,-7.9502463E-1,-5.1755166E-1,3.0798224E-1,-2.9104447E-1,1.3619788E-1,-2.6427E-1,-2.997873E-1,-8.834245E-2,-1.0117042E0,1.1151017E-1,9.254199E-3,1.6497795E-1,3.100104E-1,6.021406E-2,1.7968668E-1,-1.6166304E-1,-7.509817E-2,1.0418551E0,6.988742E-1,-6.8803084E-1,-2.836307E-1,1.0822163E-1,-2.846901E-1,-3.781996E-2,-2.9929963E-1,-1.7675251E-1,1.3997036E-1,-1.9795583E-1,-2.405299E-1,1.6430065E-1,7.681035E-2,-3.2921982E-1,-3.044268E-1,-5.1566485E-2,1.7084703E-1,1.2344043E-3,3.1293663E-1,2.9730508E-2,-8.167194E-3,8.365485E-2,-7.983083E-2,6.1216485E-2,-1.0873636E-1,1.2474443E-1,6.629152E-1,3.1143996E-1,2.7893355E-2,2.5075504E-1,-2.784763E-1,-8.8427514E-2],"categories":[],"categories_nodes":[],"categories_segments":[],"categories_sizes":[],"default_left":[0,0,0,0,0,0,0,0,0,0,0,0,0,0,0,0,0,0,0,0,0,0,0,0,0,0,0,0,0,0,0,0,0,0,0,0,0,0,0,0,0,0,0,0,0,0,0,0,0,0,0,0,0,0,0,0,0,0,0,0,0,0,0,0,0,0,0,0,0,0,0,0,0,0,0,0,0,0,0,0,0,0,0],"id":9,"left_children":[1,3,5,7,9,11,13,15,-1,17,19,21,23,25,27,29,31,33,35,-1,37,39,41,43,45,47,-1,49,51,53,-1,55,-1,57,59,61,-1,-1,-1,-1,63,65,-1,67,69,-1,-1,71,73,75,77,79,81,-1,-1,-1,-1,-1,-1,-1,-1,-1,-1,-1,-1,-1,-1,-1,-1,-1,-1,-1,-1,-1,-1,-1,-1,-1,-1,-1,-1,-1,-1],"loss_changes":[3.7030344E3,6.299829E1,2.5115688E3,5.675537E0,2.8309723E1,8.934391E2,2.832036E2,3.3303223E0,0E0,2.0026245E1,5.99823E-2,2.4356201E1,1.6388083E2,2.3430555E1,7.6968994E1,3.2763672E-1,3.2770294E1,1.1224548E1,2.2017855E1,0E0,2.4041653E0,3.2567127E1,3.774414E0,3.036167E1,3.7965393E-1,6.9929614E0,0E0,2.1223145E1,1.0730064E1,2.8136597E0,0E0,5.869026E-1,0E0,1.1604614E1,4.423974E1,1.2864477E1,0E0,0E0,0E0,0E0,2.6342318E1,1.9875488E0,0E0,2.54474E1,8.42814E1,0E0,0E0,3.6155777E0,3.5373478E0,2.6862254E0,1.1263184E1,5.021391E-1,2.5851612E0,0E0,0E0,0E0,0E0,0E0,0E0,0E0,0E0,0E0,0E0,0E0,0E0,0E0,0E0,0E0,0E0,0E0,0E0,0E0,0E0,0E0,0E0,0E0,0E0,0E0,0E0,0E0,0E0,0E0,0E0],"parents":[2147483647,0,0,1,1,2,2,3,3,4,4,5,5,6,6,7,7,9,9,10,10,11,11,12,12,13,13,14,14,15,15,16,16,17,17,18,18,20,20,21,21,22,22,23,23,24,24,25,25,27,27,28,28,29,29,31,31,33,33,34,34,35,35,40,40,41,41,43,43,44,44,47,47,48,48,49,49,50,50,51,51,52,52],"right_children":[2,4,6,8,10,12,14,16,-1,18,20,22,24,26,28,30,32,34,36,-1,38,40,42,44,46,48,-1,50,52,54,-1,56,-1,58,60,62,-1,-1,-1,-1,64,66,-1,68,70,-1,-1,72,74,76,78,80,82,-1,-1,-1,-1,-1,-1,-1,-1,-1,-1,-1,-1,-1,-1,-1,-1,-1,-1,-1,-1,-1,-1,-1,-1,-1,-1,-1,-1,-1,-1],"split_conditions":[6.422787E3,2.222579E0,3.096E3,5.27E2,1E0,8E1,3.68E2,1.9566916E7,1.4961098E-1,1.1521755E5,3.910039E1,5E1,3.718064E1,1E0,4.47E2,2E0,2.24E2,3.30033E3,1.161E3,-3.0585402E-1,1.030864E3,1.7E1,1.540931E6,2.432E3,2.0686334E4,9.87843E5,-3.013563E-1,4.28E2,2.09E2,1.0396599E7,-3.0583286E-1,8E1,8.8949966E-1,7.0101E4,1.2578616E4,4E0,-2.9104447E-1,1.3619788E-1,-2.6427E-1,-2.997873E-1,8.6E1,2.9648093E2,1.1151017E-1,3.86E2,4.41E2,3.100104E-1,6.021406E-2,1.10493E5,5.206958E4,2.16733E5,6.467614E1,4.8142856E7,1.343E3,-2.836307E-1,1.0822163E-1,-2.846901E-1,-3.781996E-2,-2.9929963E-1,-1.7675251E-1,1.3997036E-1,-1.9795583E-1,-2.405299E-1,1.6430065E-1,7.681035E-2,-3.2921982E-1,-3.044268E-1,-5.1566485E-2,1.7084703E-1,1.2344043E-3,3.1293663E-1,2.9730508E-2,-8.167194E-3,8.365485E-2,-7.983083E-2,6.1216485E-2,-1.0873636E-1,1.2474443E-1,6.629152E-1,3.1143996E-1,2.7893355E-2,2.5075504E-1,-2.784763E-1,-8.8427514E-2],"split_indices":[14,15,4,7,11,7,8,17,0,21,9,1,9,3,6,4,7,15,10,0,14,0,14,4,16,1,0,6,1,20,0,7,0,1,15,2,0,0,0,0,4,9,0,4,6,0,0,18,16,1,15,14,7,0,0,0,0,0,0,0,0,0,0,0,0,0,0,0,0,0,0,0,0,0,0,0,0,0,0,0,0,0,0],"split_type":[0,0,0,0,0,0,0,0,0,0,0,0,0,0,0,0,0,0,0,0,0,0,0,0,0,0,0,0,0,0,0,0,0,0,0,0,0,0,0,0,0,0,0,0,0,0,0,0,0,0,0,0,0,0,0,0,0,0,0,0,0,0,0,0,0,0,0,0,0,0,0,0,0,0,0,0,0,0,0,0,0,0,0],"sum_hessian":[1.859471E4,3.6753906E3,1.491932E4,2.7855833E3,8.898072E2,1.146286E4,3.4564607E3,2.783639E3,1.9443597E0,6.676576E2,2.2214958E2,1.0011389E3,1.0461721E4,2.86303E2,3.1701577E3,2.7563508E3,2.7288088E1,6.03996E2,6.366163E1,2.1574799E2,6.4016004E0,1.570761E2,8.4406287E2,1.0295445E4,1.6627577E2,2.6503635E2,2.1266638E1,3.134911E3,3.5246887E1,2.1236981E2,2.543981E3,2.5891344E1,1.3967443E0,2.912894E2,3.1270654E2,4.5713375E1,1.7948254E1,1.0431732E0,5.358427E0,8.3078545E1,7.399756E1,8.4255206E2,1.5107507E0,8.837733E3,1.4577117E3,1.6518364E2,1.0921463E0,1.748463E2,9.019006E1,1.6973818E1,3.117937E3,5.9867754E0,2.926011E1,2.1118674E2,1.1830772E0,2.4650808E1,1.2405349E0,1.448504E2,1.4643901E2,3.9216457E1,2.7349008E2,7.703077E0,3.8010296E1,5.5725494E1,1.8272066E1,8.392939E2,3.2581708E0,7.934082E1,8.758393E3,1.00687805E2,1.3570238E3,5.6882378E1,1.1796392E2,7.036733E1,1.9822731E1,1.087172E1,6.102098E0,8.022265E0,3.1099148E3,1.4134299E0,4.5733457E0,1.7320105E1,1.1940006E1],"tree_param":{"num_deleted":"0","num_feature":"24","num_nodes":"83","size_leaf_vector":"1"}},{"base_weights":[-2.9748362E-2,-9.0272385E-1,1.4812338E-1,-9.97975E-1,-6.301615E-1,-3.0547338E-2,8.971301E-1,-9.995013E-1,1.16922714E-1,-5.1946205E-1,-1.0004456E0,-9.097208E-1,3.441653E-2,-1.8199207E-2,1.005632E0,-1.0040218E0,-5.557078E-1,-5.7291627E-1,-6.902415E-2,-3.0349368E-1,-5.594186E-1,-4.9773476E-1,-9.963362E-1,2.2402164E-2,1.0134301E0,4.3591786E-2,-2.9529688E-1,1.0238619E0,-3.6926514E-1,-9.0303385E-1,-1.0121855E0,-8.762542E-1,5.1798296E-1,-7.2780985E-1,-4.3696222E-1,4.9224475E-1,-6.015671E-1,1.3503271E-1,-2.5250044E-1,-2.956321E-1,-6.814045E-2,-1.0036492E0,-1.3169488E-1,2.4821958E-2,-3.317145E-1,3.0584326E-1,5.072836E-2,-1.5972008E-1,1.1586975E-1,-5.439735E-2,1.0316556E0,-8.2736754E-1,1.0965172E-1,-2.8847602E-1,-1.5567102E-1,-1.9402812E-1,-3.0396697E-1,-2.757194E-1,-3.1612717E-2,-2.946367E-1,-1.5005784E-1,7.425403E-2,-1.7751807E-1,-2.221598E-1,2.4951261E-1,-9.582227E-2,-2.9068297E-1,4.126394E-1,-7.768333E-2,-3.0232918E-1,-4.1257277E-2,2.6862702E-1,-1.8465047E-1,2.144142E-1,6.104183E-3,-8.752888E-2,4.5090903E-2,3.867796E-2,-2.6796034E-1,-5.381773E-2,1.842644E-1,6.4652777E-1,3.083322E-1,2.1316295E-2,-2.787193E-1,2.5736737E-1,-8.648097E-2],"categories":[],"categories_nodes":[],"categories_segments":[],"categories_sizes":[],"default_left":[0,0,0,0,0,0,0,0,0,0,0,0,0,0,0,0,0,0,0,0,0,0,0,0,0,0,0,0,0,0,0,0,0,0,0,0,0,0,0,0,0,0,0,0,0,0,0,0,0,0,0,0,0,0,0,0,0,0,0,0,0,0,0,0,0,0,0,0,0,0,0,0,0,0,0,0,0,0,0,0,0,0,0,0,0,0,0],"id":10,"left_children":[1,3,5,7,9,11,13,15,-1,17,19,21,23,25,27,29,31,33,35,-1,37,39,41,43,45,47,-1,49,51,53,55,57,-1,59,61,63,65,-1,-1,-1,67,69,71,73,-1,-1,-1,75,77,79,81,83,85,-1,-1,-1,-1,-1,-1,-1,-1,-1,-1,-1,-1,-1,-1,-1,-1,-1,-1,-1,-1,-1,-1,-1,-1,-1,-1,-1,-1,-1,-1,-1,-1,-1,-1],"loss_changes":[2.5815122E3,7.24292E1,1.8483223E3,4.8027344E0,2.946289E1,6.369807E2,2.642036E2,3.61792E0,0E0,1.3568985E1,2.6026917E-1,2.6887878E1,1.22136955E2,1.6930656E1,5.998535E1,7.8393555E-1,1.8506748E1,1.0318497E1,1.8557055E1,0E0,2.196632E0,2.82817E1,3.8709717E0,2.8037704E1,4.703827E-1,3.939711E0,0E0,1.9782227E1,7.079447E0,3.1739197E0,6.4086914E-2,5.972214E-1,0E0,1.3088783E1,2.8906734E1,1.3293723E1,2.9867735E0,0E0,0E0,0E0,2.0467413E1,2.0980225E0,3.7616134E0,3.1596493E1,0E0,0E0,0E0,2.9259176E0,2.716423E0,1.5973452E0,7.947754E0,1.5642662E0,5.147099E0,0E0,0E0,0E0,0E0,0E0,0E0,0E0,0E0,0E0,0E0,0E0,0E0,0E0,0E0,0E0,0E0,0E0,0E0,0E0,0E0,0E0,0E0,0E0,0E0,0E0,0E0,0E0,0E0,0E0,0E0,0E0,0E0,0E0,0E0],"parents":[2147483647,0,0,1,1,2,2,3,3,4,4,5,5,6,6,7,7,9,9,10,10,11,11,12,12,13,13,14,14,15,15,16,16,17,17,18,18,20,20,21,21,22,22,23,23,24,24,25,25,27,27,28,28,29,29,30,30,31,31,33,33,34,34,35,35,36,36,40,40,41,41,42,42,43,43,47,47,48,48,49,49,50,50,51,51,52,52],"right_children":[2,4,6,8,10,12,14,16,-1,18,20,22,24,26,28,30,32,34,36,-1,38,40,42,44,46,48,-1,50,52,54,56,58,-1,60,62,64,66,-1,-1,-1,68,70,72,74,-1,-1,-1,76,78,80,82,84,86,-1,-1,-1,-1,-1,-1,-1,-1,-1,-1,-1,-1,-1,-1,-1,-1,-1,-1,-1,-1,-1,-1,-1,-1,-1,-1,-1,-1,-1,-1,-1,-1,-1,-1],"split_conditions":[6.422787E3,2.222579E0,3.096E3,5.27E2,1E0,8E1,3.68E2,1.9566916E7,1.16922714E-1,1.1521755E5,3.910039E1,5E1,3.718064E1,1E0,4.47E2,1E0,2.24E2,3.30033E3,1.92E3,-3.0349368E-1,7.928118E2,1.7E1,8.275862E5,1E0,2.0686334E4,2.022668E1,-2.9529688E-1,4.28E2,1.464E3,2E0,1.986685E6,8E1,5.1798296E-1,7.0101E4,1.3289036E4,4E0,3.096E3,1.3503271E-1,-2.5250044E-1,-2.956321E-1,1.8E1,2.9648093E2,2.5974025E4,3.86E2,-3.317145E-1,3.0584326E-1,5.072836E-2,5.206958E4,2.6E1,1.0227273E5,6.467614E1,4.86E2,7.1E1,-2.8847602E-1,-1.5567102E-1,-1.9402812E-1,-3.0396697E-1,-2.757194E-1,-3.1612717E-2,-2.946367E-1,-1.5005784E-1,7.425403E-2,-1.7751807E-1,-2.221598E-1,2.4951261E-1,-9.582227E-2,-2.9068297E-1,4.126394E-1,-7.768333E-2,-3.0232918E-1,-4.1257277E-2,2.6862702E-1,-1.8465047E-1,2.144142E-1,6.104183E-3,-8.752888E-2,4.5090903E-2,3.867796E-2,-2.6796034E-1,-5.381773E-2,1.842644E-1,6.4652777E-1,3.083322E-1,2.1316295E-2,-2.787193E-1,2.5736737E-1,-8.648097E-2],"split_indices":[14,15,4,7,11,7,8,17,0,21,9,1,9,3,6,6,7,15,4,0,14,0,14,3,16,15,0,6,7,23,18,7,0,1,15,2,4,0,0,0,4,9,15,4,0,0,0,16,2,14,15,6,16,0,0,0,0,0,0,0,0,0,0,0,0,0,0,0,0,0,0,0,0,0,0,0,0,0,0,0,0,0,0,0,0,0,0],"split_type":[0,0,0,0,0,0,0,0,0,0,0,0,0,0,0,0,0,0,0,0,0,0,0,0,0,0,0,0,0,0,0,0,0,0,0,0,0,0,0,0,0,0,0,0,0,0,0,0,0,0,0,0,0,0,0,0,0,0,0,0,0,0,0,0,0,0,0,0,0,0,0,0,0,0,0,0,0,0,0,0,0,0,0,0,0,0,0],"sum_hessian":[1.6623273E4,2.81305E3,1.3810223E4,2.0825938E3,7.304561E2,1.1151147E4,2.6590754E3,2.0805852E3,2.0086179E0,5.6418976E2,1.6626637E2,7.6638947E2,1.0384758E4,2.8188754E2,2.377188E3,2.0583567E3,2.2228628E1,5.0409595E2,6.0093834E1,1.608868E2,5.3795824E0,1.3430667E2,6.320828E2,1.0259873E4,1.2488536E2,2.6583994E2,1.6047617E1,2.346333E3,3.0854828E1,1.6229828E2,1.8960583E3,2.003134E1,2.197289E0,2.336001E2,2.7049585E2,2.929466E1,3.0799175E1,1.0454782E0,4.3341045E0,6.2293194E1,7.201347E1,6.2662213E2,5.4606695E0,1.0238889E4,2.0984274E1,1.237913E2,1.0940635E0,6.940361E1,1.9643634E2,1.6794699E1,2.3295383E3,1.5398239E1,1.5456589E1,1.3952698E2,2.2771296E1,7.1363783E0,1.8889219E3,1.8795319E1,1.2360208E0,1.08764595E2,1.24835495E2,4.9771744E1,2.2072409E2,6.069941E0,2.3224718E1,1.8477299E1,1.2321876E1,7.6821632E0,6.4331314E1,6.2349664E2,3.1255155E0,1.4761102E0,3.9845595E0,6.495927E1,1.017393E4,4.8714413E1,2.0689196E1,1.9478812E2,1.6482102E0,1.4765943E1,2.0287557E0,6.112759E0,2.3234255E3,1.5964053E0,1.3801834E1,4.9648705E0,1.0491719E1],"tree_param":{"num_deleted":"0","num_feature":"24","num_nodes":"87","size_leaf_vector":"1"}},{"base_weights":[-2.472066E-2,-8.6623985E-1,1.15680955E-1,-9.876938E-1,-5.5555344E-1,-2.3863716E-2,8.570323E-1,-9.8959863E-1,3.0604118E-1,-4.4263127E-1,-9.899226E-1,-8.705763E-1,2.462986E-2,-1.7667793E-2,9.934937E-1,-9.9516356E-1,-4.9576405E-1,1.1737948E-1,2.1229511E-2,-3.8776848E-1,-8.464512E-1,-3.014735E-1,-4.8990968E-1,-4.1903633E-1,-9.85479E-1,1.5630156E-2,9.987152E-1,2.890929E-2,-2.8845027E-1,1.0137963E0,-3.1086925E-1,-8.644217E-1,-1.0061318E0,-8.315732E-1,1.1502844E0,5.9640463E-2,-4.8561454E-1,-8.6068976E-1,-1.761357E-2,1.21439554E-1,-2.4106823E-1,-2.916926E-1,-3.9622422E-2,-9.8944175E-1,1.1279414E-1,1.4711048E-2,2.4334607E0,3.0215955E-1,4.27646E-2,4.0796723E-2,-2.5933653E-1,-3.2111146E-2,1.0238112E0,-8.092154E-1,7.943725E-2,-2.8163332E-1,-1.3152455E-1,-1.7355607E-1,-3.0225536E-1,-2.647424E-1,-1.4831356E-2,1.0140397E-1,4.7634783E-1,5.508835E-1,-2.1265045E-2,-1.8060014E-1,-5.17499E-2,-1.771413E-1,-2.732654E-1,5.859358E-2,-2.3168685E-1,-2.9911238E-1,-8.863985E-2,4.952984E-3,-3.185421E-1,2.9845518E-1,9.580515E-1,2.445208E-1,8.614325E-3,-7.701522E-2,9.653925E-2,5.60727E-1,3.060512E-1,1.7334372E-2,-2.828999E-1,-5.1325556E-2,4.1054904E-1],"categories":[],"categories_nodes":[],"categories_segments":[],"categories_sizes":[],"default_left":[0,0,0,0,0,0,0,0,0,0,0,0,0,0,0,0,0,0,0,0,0,0,0,0,0,0,0,0,0,0,0,0,0,0,0,0,0,0,0,0,0,0,0,0,0,0,0,0,0,0,0,0,0,0,0,0,0,0,0,0,0,0,0,0,0,0,0,0,0,0,0,0,0,0,0,0,0,0,0,0,0,0,0,0,0,0,0],"id":11,"left_children":[1,3,5,7,9,11,13,15,17,19,21,23,25,27,29,31,33,-1,-1,35,37,-1,39,41,43,45,47,49,-1,51,53,55,57,59,61,63,65,67,-1,-1,-1,-1,69,71,-1,73,75,-1,-1,77,-1,79,81,83,85,-1,-1,-1,-1,-1,-1,-1,-1,-1,-1,-1,-1,-1,-1,-1,-1,-1,-1,-1,-1,-1,-1,-1,-1,-1,-1,-1,-1,-1,-1,-1,-1],"loss_changes":[1.7927086E3,8.131702E1,1.3452725E3,4.1435547E0,2.9582336E1,4.4941272E2,2.4590112E2,3.7840576E0,3.357026E-2,1.0473679E1,4.4808197E-1,3.0348846E1,9.074206E1,1.2292291E1,4.7505615E1,1.3359375E0,1.1645105E1,0E0,0E0,1.8901093E1,5.940895E-1,0E0,1.8976725E0,2.5573822E1,2.9179382E0,2.2762335E1,5.4467773E-1,2.8690195E0,0E0,1.8415161E1,5.525494E0,3.584282E0,2.545166E-1,6.188688E-1,7.768774E-1,1.8276003E1,1.2791008E1,2.268486E-1,0E0,0E0,0E0,0E0,1.2788429E1,2.1883545E0,0E0,1.987905E1,1.0787907E0,0E0,0E0,2.4490044E0,0E0,1.4827572E0,3.442627E0,1.495224E0,5.6129646E0,0E0,0E0,0E0,0E0,0E0,0E0,0E0,0E0,0E0,0E0,0E0,0E0,0E0,0E0,0E0,0E0,0E0,0E0,0E0,0E0,0E0,0E0,0E0,0E0,0E0,0E0,0E0,0E0,0E0,0E0,0E0,0E0],"parents":[2147483647,0,0,1,1,2,2,3,3,4,4,5,5,6,6,7,7,8,8,9,9,10,10,11,11,12,12,13,13,14,14,15,15,16,16,19,19,20,20,22,22,23,23,24,24,25,25,26,26,27,27,29,29,30,30,31,31,32,32,33,33,34,34,35,35,36,36,37,37,42,42,43,43,45,45,46,46,49,49,51,51,52,52,53,53,54,54],"right_children":[2,4,6,8,10,12,14,16,18,20,22,24,26,28,30,32,34,-1,-1,36,38,-1,40,42,44,46,48,50,-1,52,54,56,58,60,62,64,66,68,-1,-1,-1,-1,70,72,-1,74,76,-1,-1,78,-1,80,82,84,86,-1,-1,-1,-1,-1,-1,-1,-1,-1,-1,-1,-1,-1,-1,-1,-1,-1,-1,-1,-1,-1,-1,-1,-1,-1,-1,-1,-1,-1,-1,-1,-1],"split_conditions":[6.422787E3,2.222579E0,3.096E3,5.27E2,1E0,8E1,3.68E2,1.9566916E7,5.387251E6,4.7619047E4,3.910039E1,5.3E1,3.718064E1,1E0,4.47E2,1E0,2.24E2,1.1737948E-1,2.1229511E-2,1.53E2,8.1E1,-3.014735E-1,3E0,1.7E1,1.7828398E6,9.228808E4,2.0686334E4,2E0,-2.8845027E-1,4.28E2,1.343E3,2E0,1.986685E6,1.3428785E7,4.4849108E7,1.6304348E4,1.7111984E2,2E0,-1.761357E-2,1.21439554E-1,-2.4106823E-1,-2.916926E-1,8.6E1,2.9716592E4,1.1279414E-1,1E0,2.1953E5,3.0215955E-1,4.27646E-2,3.52E3,-2.5933653E-1,2.16733E5,6.467614E1,4.86E2,6.968E2,-2.8163332E-1,-1.3152455E-1,-1.7355607E-1,-3.0225536E-1,-2.647424E-1,-1.4831356E-2,1.0140397E-1,4.7634783E-1,5.508835E-1,-2.1265045E-2,-1.8060014E-1,-5.17499E-2,-1.771413E-1,-2.732654E-1,5.859358E-2,-2.3168685E-1,-2.9911238E-1,-8.863985E-2,4.952984E-3,-3.185421E-1,2.9845518E-1,9.580515E-1,2.445208E-1,8.614325E-3,-7.701522E-2,9.653925E-2,5.60727E-1,3.060512E-1,1.7334372E-2,-2.828999E-1,-5.1325556E-2,4.1054904E-1],"split_indices":[14,15,4,7,11,7,8,17,1,15,9,1,9,3,6,6,7,0,0,1,1,0,22,0,14,17,16,19,0,6,7,23,18,20,1,15,21,1,0,0,0,0,4,20,0,3,1,0,0,4,0,1,15,6,16,0,0,0,0,0,0,0,0,0,0,0,0,0,0,0,0,0,0,0,0,0,0,0,0,0,0,0,0,0,0,0,0],"split_type":[0,0,0,0,0,0,0,0,0,0,0,0,0,0,0,0,0,0,0,0,0,0,0,0,0,0,0,0,0,0,0,0,0,0,0,0,0,0,0,0,0,0,0,0,0,0,0,0,0,0,0,0,0,0,0,0,0,0,0,0,0,0,0,0,0,0,0,0,0,0,0,0,0,0,0,0,0,0,0,0,0,0,0,0,0,0,0],"sum_hessian":[1.5171226E4,2.1685442E3,1.3002682E4,1.5575039E3,6.110403E2,1.0943713E4,2.0589688E3,1.5554489E3,2.0550985E0,4.8656732E2,1.2447297E2,5.919057E2,1.0351807E4,2.7798584E2,1.780983E3,1.537112E3,1.8336773E1,1.0219252E0,1.0331733E0,4.3009503E2,5.6472275E1,1.1986981E2,4.6031566E0,1.2101047E2,4.7089523E2,1.0258048E4,9.375941E1,2.6583646E2,1.2149355E1,1.7539059E3,2.7077091E1,1.2514745E2,1.4119646E3,1.5640726E1,2.6960464E0,7.725066E1,3.528444E2,5.537869E1,1.0935863E0,1.1194001E0,3.4837565E0,4.8591E1,7.2419464E1,4.6980106E2,1.0941844E0,1.0255155E4,2.892283E0,9.266484E1,1.0945657E0,2.632874E2,2.5490656E0,1.6614098E1,1.7372917E3,1.1421172E1,1.5655919E1,1.0552523E2,1.9622223E1,5.91388E0,1.4060508E3,1.4564574E1,1.0761521E0,1.5643841E0,1.1316624E0,4.3925524E0,7.285811E1,2.565582E2,9.628619E1,1.0674925E1,4.4703762E1,5.539131E1,1.7028154E1,4.6428018E2,5.5208726E0,1.023903E4,1.6125107E1,1.7979892E0,1.0942936E0,3.0242486E0,2.6026315E2,1.03317375E1,6.28236E0,5.2531934E0,1.7320386E3,1.6027232E0,9.818449E0,1.3834525E1,1.8213935E0],"tree_param":{"num_deleted":"0","num_feature":"24","num_nodes":"87","size_leaf_vector":"1"}},{"base_weights":[-2.000916E-2,-8.203732E-1,8.924021E-2,-9.7951674E-1,-4.7944313E-1,2.6062415E-3,9.874565E-1,-9.867183E-1,-4.189797E-1,-3.7293464E-1,-9.786942E-1,3.376865E-2,-9.9182314E-1,1.008998E0,-1.320619E-1,-9.88345E-1,-9.909142E-3,-8.5021776E-1,7.311847E-1,-3.2888323E-1,-8.7700176E-1,-2.996087E-1,-4.3226877E-1,1.9323993E-2,9.6548617E-1,-3.0071813E-1,-4.1712144E-1,3.0415642E-1,-9.478121E-2,-2.599707E-1,2.1687812E-1,-8.2862103E-1,-3.0074838E-1,-1.0155657E-2,-2.768743E-1,-2.8181246E-1,5.697224E-1,-3.8149235E-1,2.4912512E0,-2.9488704E-1,2.3459452E-1,1.4447638E-1,-2.3242147E-1,-2.9385614E-1,2.5400477E-2,-2.4010505E-1,1.009061E0,3.9238346E-1,-2.592042E-1,3.2514206E-1,-1.7341365E-1,6.3320774E-1,-4.0918E-1,-2.7720475E-1,-1.07705876E-1,-2.4387942E-1,-8.59285E-2,-9.5620047E-4,5.4096945E-2,3.0428925E-1,3.6067862E-2,-3.218621E-2,2.122759E-1,9.2646025E-2,3.440737E-1,-2.4281293E-1,1.9707234E-1],"categories":[],"categories_nodes":[],"categories_segments":[],"categories_sizes":[],"default_left":[0,0,0,0,0,0,0,0,0,0,0,0,0,0,0,0,0,0,0,0,0,0,0,0,0,0,0,0,0,0,0,0,0,0,0,0,0,0,0,0,0,0,0,0,0,0,0,0,0,0,0,0,0,0,0,0,0,0,0,0,0,0,0,0,0,0,0],"id":12,"left_children":[1,3,5,7,9,11,13,15,17,19,21,23,25,27,29,31,-1,33,35,37,39,-1,41,43,45,-1,47,-1,49,-1,51,53,-1,-1,-1,-1,-1,55,-1,-1,-1,-1,-1,-1,57,-1,59,-1,-1,61,-1,63,65,-1,-1,-1,-1,-1,-1,-1,-1,-1,-1,-1,-1,-1,-1],"loss_changes":[1.2324911E3,9.138342E1,9.651209E2,4.241699E0,2.8387352E1,3.5059796E2,2.6444336E1,1.732666E0,8.739105E0,9.642918E0,6.006317E-1,1.476173E2,1.6702576E0,5.834839E0,5.693499E0,1.7364502E0,0E0,7.0260906E-1,1.1540128E1,1.9070447E2,6.981617E0,0E0,1.9687915E0,6.559569E1,1.3692337E1,0E0,7.236848E0,0E0,1.32525E0,0E0,4.2632933E0,4.0674286E0,0E0,0E0,0E0,0E0,0E0,1.663921E1,0E0,0E0,0E0,0E0,0E0,0E0,4.7562744E1,0E0,6.407318E-1,0E0,0E0,6.7767954E-1,0E0,1.2487648E0,3.4086628E0,0E0,0E0,0E0,0E0,0E0,0E0,0E0,0E0,0E0,0E0,0E0,0E0,0E0,0E0],"parents":[2147483647,0,0,1,1,2,2,3,3,4,4,5,5,6,6,7,7,8,8,9,9,10,10,11,11,12,12,13,13,14,14,15,15,17,17,18,18,19,19,20,20,22,22,23,23,24,24,26,26,28,28,30,30,31,31,37,37,44,44,46,46,49,49,51,51,52,52],"right_children":[2,4,6,8,10,12,14,16,18,20,22,24,26,28,30,32,-1,34,36,38,40,-1,42,44,46,-1,48,-1,50,-1,52,54,-1,-1,-1,-1,-1,56,-1,-1,-1,-1,-1,-1,58,-1,60,-1,-1,62,-1,64,66,-1,-1,-1,-1,-1,-1,-1,-1,-1,-1,-1,-1,-1,-1],"split_conditions":[6.422787E3,1.9942983E0,7.344E3,1.9566916E7,1E0,1E0,1.096318E4,5.27E2,8E1,4.96E2,3.910039E1,3.718064E1,2.9716592E4,4.41E2,3.21E2,1E0,-9.909142E-3,6E0,4.2715624E7,3.21E2,5.58E2,-2.996087E-1,8.5E1,1.7E1,1.7E1,-3.0071813E-1,4.806E3,3.0415642E-1,9.06E2,-2.599707E-1,1E0,2E0,-3.0074838E-1,-1.0155657E-2,-2.768743E-1,-2.8181246E-1,5.697224E-1,1E0,2.4912512E0,-2.9488704E-1,2.3459452E-1,1.4447638E-1,-2.3242147E-1,-2.9385614E-1,2.64E3,-2.4010505E-1,2.0686334E4,3.9238346E-1,-2.592042E-1,1.5328934E2,-1.7341365E-1,1.056E4,2.16733E5,-2.7720475E-1,-1.07705876E-1,-2.4387942E-1,-8.59285E-2,-9.5620047E-4,5.4096945E-2,3.0428925E-1,3.6067862E-2,-3.218621E-2,2.122759E-1,9.2646025E-2,3.440737E-1,-2.4281293E-1,1.9707234E-1],"split_indices":[14,15,4,17,11,3,17,7,7,8,9,9,20,6,7,6,0,0,1,7,8,0,10,0,0,0,5,0,1,0,19,23,0,0,0,0,0,3,0,0,0,0,0,0,4,0,16,0,0,17,0,4,1,0,0,0,0,0,0,0,0,0,0,0,0,0,0],"split_type":[0,0,0,0,0,0,0,0,0,0,0,0,0,0,0,0,0,0,0,0,0,0,0,0,0,0,0,0,0,0,0,0,0,0,0,0,0,0,0,0,0,0,0,0,0,0,0,0,0,0,0,0,0,0,0,0,0,0,0,0,0,0,0,0,0,0,0],"sum_hessian":[1.4093559E4,1.691929E3,1.2401629E4,1.152212E3,5.3971686E2,1.1311614E4,1.090015E3,1.1368461E3,1.5365982E1,4.4626022E2,9.3456604E1,1.096885E4,3.4276453E2,1.0695339E3,2.0481007E1,1.1348739E3,1.9721652E0,1.1365452E1,4.000531E0,4.1191467E2,3.434557E1,8.935805E1,4.098563E0,1.0802398E4,1.6645161E2,3.358431E2,6.921407E0,1.0649297E3,4.604303E0,6.118447E0,1.4362559E1,9.720108E1,1.0376729E3,1.0491701E0,1.0316281E1,1.7265394E0,2.2739916E0,4.1036972E2,1.544949E0,3.266672E1,1.6788455E0,1.0065173E0,3.0920458E0,6.435048E1,1.0738048E4,3.5903018E0,1.6286131E2,1.0276775E0,5.8937297E0,2.638674E0,1.9656291E0,8.619295E0,5.7432647E0,7.9985245E1,1.7215837E1,7.273184E1,3.3763788E2,9.066069E3,1.6719784E3,1.6176714E2,1.0941737E0,1.5760757E0,1.0625982E0,6.26458E0,2.354715E0,4.3508177E0,1.3924468E0],"tree_param":{"num_deleted":"0","num_feature":"24","num_nodes":"67","size_leaf_vector":"1"}},{"base_weights":[-1.6458504E-2,-7.6879686E-1,6.7750536E-2,-9.6821004E-1,-4.038616E-1,1.0387617E-3,9.7722876E-1,-9.7667426E-1,-3.7767583E-1,-3.0383942E-1,-9.659326E-1,2.428169E-2,-9.81697E-1,1.0031495E0,-9.860356E-2,-7.772935E-1,-9.9534285E-1,-8.075726E-1,5.6208974E-1,-5.9328336E-1,-2.2213091E-1,-2.9772893E-1,-3.5157925E-1,1.34220235E-2,9.560225E-1,-9.950514E-1,-3.506818E-1,3.0280417E-1,-7.0611045E-2,-7.6571643E-1,1.8200397E-1,-8.9486927E-1,-2.8934836E-1,-2.9933324E-1,-7.945719E-3,-8.6464835E-3,-2.6866853E-1,-2.4837081E-1,4.3049818E-1,-7.518597E-1,1.4822036E-1,1.6716743E0,-2.5363615E-1,1.4232165E-1,-2.1949394E-1,-2.9007366E-1,1.7928068E-2,-2.262537E-1,1.0019951E0,-3.012004E-1,-5.896237E-1,3.7332273E-1,-2.5135738E-1,-3.478805E-1,1.3849787E-1,-2.6951048E-1,-9.251842E-2,4.9419633E-1,-3.1485605E-1,4.1229386E-2,-2.8218073E-1,5.3598034E-1,-2.8199494E-1,-2.3793106E-1,-5.4841237E-3,7.641E-1,-2.4691372E-1,6.9483507E-1,-1.1806903E-1,-1.627038E-2,-1.3592644E-1,2.0189057E-3,8.826053E-2,3.027818E-1,3.0429948E-2,-2.867705E-1,2.8363875E-1,-1.6829652E-1,1.8871177E-2,6.6167995E-2,2.992587E-1,-1.9735809E-1,1.6589163E-1],"categories":[],"categories_nodes":[],"categories_segments":[],"categories_sizes":[],"default_left":[0,0,0,0,0,0,0,0,0,0,0,0,0,0,0,0,0,0,0,0,0,0,0,0,0,0,0,0,0,0,0,0,0,0,0,0,0,0,0,0,0,0,0,0,0,0,0,0,0,0,0,0,0,0,0,0,0,0,0,0,0,0,0,0,0,0,0,0,0,0,0,0,0,0,0,0,0,0,0,0,0,0,0],"id":13,"left_children":[1,3,5,7,9,11,13,15,17,19,21,23,25,27,29,31,33,35,37,39,41,-1,43,45,47,49,51,-1,53,55,57,59,61,-1,-1,-1,-1,-1,-1,63,65,67,69,-1,-1,-1,71,-1,73,-1,75,-1,-1,77,-1,-1,-1,79,81,-1,-1,-1,-1,-1,-1,-1,-1,-1,-1,-1,-1,-1,-1,-1,-1,-1,-1,-1,-1,-1,-1,-1,-1],"loss_changes":[8.416766E2,9.693091E1,7.249311E2,3.9500732E0,2.6369514E1,2.5431256E2,2.2868774E1,2.3947144E0,6.045457E0,9.424648E0,8.0992126E-1,1.100392E2,1.8188019E0,5.3778687E0,3.9059067E0,4.184078E0,1.8011475E0,6.5300894E-1,7.174231E0,1.0501049E1,1.932096E1,0E0,1.7572744E0,4.7514145E1,1.0606499E1,3.2011414E-1,6.3855267E0,0E0,9.7389555E-1,9.600663E-2,2.4778752E0,3.0529442E0,2.3986454E1,0E0,0E0,0E0,0E0,0E0,0E0,2.192833E0,4.0311287E1,7.984665E0,1.240007E1,0E0,0E0,0E0,3.3114014E1,0E0,7.000885E-1,0E0,5.318697E0,0E0,0E0,4.0240133E-1,0E0,0E0,0E0,1.099905E0,2.2652388E0,0E0,0E0,0E0,0E0,0E0,0E0,0E0,0E0,0E0,0E0,0E0,0E0,0E0,0E0,0E0,0E0,0E0,0E0,0E0,0E0,0E0,0E0,0E0,0E0],"parents":[2147483647,0,0,1,1,2,2,3,3,4,4,5,5,6,6,7,7,8,8,9,9,10,10,11,11,12,12,13,13,14,14,15,15,16,16,17,17,18,18,19,19,20,20,22,22,23,23,24,24,25,25,26,26,28,28,29,29,30,30,31,31,32,32,39,39,40,40,41,41,42,42,46,46,48,48,50,50,53,53,57,57,58,58],"right_children":[2,4,6,8,10,12,14,16,18,20,22,24,26,28,30,32,34,36,38,40,42,-1,44,46,48,50,52,-1,54,56,58,60,62,-1,-1,-1,-1,-1,-1,64,66,68,70,-1,-1,-1,72,-1,74,-1,76,-1,-1,78,-1,-1,-1,80,82,-1,-1,-1,-1,-1,-1,-1,-1,-1,-1,-1,-1,-1,-1,-1,-1,-1,-1,-1,-1,-1,-1,-1,-1],"split_conditions":[6.422787E3,1.9942983E0,7.344E3,1.9566916E7,1E0,1E0,1.096318E4,1E0,8E1,1E0,1.8900947E5,3.718064E1,2.9716592E4,4.41E2,3.21E2,2E0,5.27E2,6E0,4.2715624E7,2.3087314E3,6E0,-2.9772893E-1,3.04E2,1.7E1,1.7E1,9.492988E5,1E1,3.0280417E-1,2.2849122E7,4.16E2,1E0,5.993687E6,7.055285E-1,-2.9933324E-1,-7.945719E-3,-8.6464835E-3,-2.6866853E-1,-2.4837081E-1,4.3049818E-1,4.6E1,1E1,2.001956E6,1.6416E4,1.4232165E-1,-2.1949394E-1,-2.9007366E-1,3.096E3,-2.262537E-1,2.0686334E4,-3.012004E-1,2.065591E1,3.7332273E-1,-2.5135738E-1,2.3354414E2,1.3849787E-1,-2.6951048E-1,-9.251842E-2,1.056E4,2.16733E5,4.1229386E-2,-2.8218073E-1,5.3598034E-1,-2.8199494E-1,-2.3793106E-1,-5.4841237E-3,7.641E-1,-2.4691372E-1,6.9483507E-1,-1.1806903E-1,-1.627038E-2,-1.3592644E-1,2.0189057E-3,8.826053E-2,3.027818E-1,3.0429948E-2,-2.867705E-1,2.8363875E-1,-1.6829652E-1,1.8871177E-2,6.6167995E-2,2.992587E-1,-1.9735809E-1,1.6589163E-1],"split_indices":[14,15,4,17,11,3,17,6,7,3,17,9,20,6,7,23,7,0,1,14,0,0,5,0,0,14,3,0,14,8,19,1,15,0,0,0,0,0,0,19,2,1,1,0,0,0,4,0,16,0,13,0,0,17,0,0,0,4,1,0,0,0,0,0,0,0,0,0,0,0,0,0,0,0,0,0,0,0,0,0,0,0,0],"split_type":[0,0,0,0,0,0,0,0,0,0,0,0,0,0,0,0,0,0,0,0,0,0,0,0,0,0,0,0,0,0,0,0,0,0,0,0,0,0,0,0,0,0,0,0,0,0,0,0,0,0,0,0,0,0,0,0,0,0,0,0,0,0,0,0,0,0,0,0,0,0,0,0,0,0,0,0,0,0,0,0,0,0,0],"sum_hessian":[1.3283537E4,1.3363372E3,1.19472E4,8.6307184E2,4.7326526E2,1.1131675E4,8.1552606E2,8.502315E2,1.28403425E1,4.0307706E2,7.018819E1,1.0875432E4,2.5624228E2,7.9640533E2,1.9120758E1,7.644405E1,7.737875E2,8.906651E0,3.9336913E0,8.7358315E1,3.1571875E2,6.6696175E1,3.4920163E0,1.075114E4,1.2429275E2,2.5036676E2,5.8755074E0,7.9189453E2,4.5107746E0,5.1495357E0,1.3971222E1,6.0928665E1,1.5515384E1,7.718182E2,1.9692905E0,1.0389501E0,7.8677006E0,1.5372938E0,2.3963974E0,7.195599E1,1.5402317E1,4.314436E0,3.1140433E2,1.02223E0,2.4697862E0,4.8213608E1,1.0702926E4,2.8504322E0,1.2144232E2,2.4351476E2,6.8519993E0,1.0110008E0,4.8645062E0,3.1935945E0,1.31718E0,3.244125E0,1.9054105E0,8.583382E0,5.3878403E0,2.4997013E0,5.8428967E1,3.285753E0,1.222963E1,6.804896E1,3.9070358E0,3.9714637E0,1.1430854E1,3.1957486E0,1.1186875E0,1.5635786E2,1.5504645E2,1.0286981E4,4.1594455E2,1.2034907E2,1.093251E0,5.8366485E0,1.0153505E0,1.8619802E0,1.3316143E0,6.4921365E0,2.091245E0,4.034982E0,1.3528578E0],"tree_param":{"num_deleted":"0","num_feature":"24","num_nodes":"83","size_leaf_vector":"1"}},{"base_weights":[-1.3285893E-2,-9.497985E-1,3.786841E-2,-9.742081E-1,-6.5698177E-1,-1.093287E-2,9.3443805E-1,-9.786393E-1,1.8078259E-1,-8.958277E-1,7.390917E-1,8.209959E-3,-9.893198E-1,9.974912E-1,-3.8797715E-1,-9.8683393E-1,-3.225259E-1,-9.365117E-1,5.254023E-2,1.1729345E0,-7.5179887E-1,-3.4060693E-1,2.1157637E-2,-3.0080876E-1,-2.776937E-1,3.0169028E-1,-6.7138866E-2,5.251653E-2,-2.6912156E-1,-4.9294508E-1,-2.9700777E-1,-2.323656E-1,5.89683E-1,-9.6987736E-1,3.7588645E-2,-2.4797252E-1,-5.1594425E-2,-2.065545E-1,-8.932597E-1,1.2810891E-2,9.955302E-1,-2.2612433E-1,1.759385E-1,2.8446722E-1,-1.482363E-1,-2.287084E-1,1.9265756E-1,-2.3466294E-1,7.86364E-2,5.651691E-2,2.40093E-1,-2.9738614E-1,-1.1689458E-1,-8.73702E-2,1.19691506E-1,-2.8059736E-1,-1.7498064E-1,-9.36544E-3,2.0185426E-2,3.0142358E-1,5.892589E-2,-3.2580756E-2,1.8472739E-1,-9.622365E-3,2.5072426E-1],"categories":[],"categories_nodes":[],"categories_segments":[],"categories_sizes":[],"default_left":[0,0,0,0,0,0,0,0,0,0,0,0,0,0,0,0,0,0,0,0,0,0,0,0,0,0,0,0,0,0,0,0,0,0,0,0,0,0,0,0,0,0,0,0,0,0,0,0,0,0,0,0,0,0,0,0,0,0,0,0,0,0,0,0,0],"id":14,"left_children":[1,3,5,7,9,11,13,15,-1,17,19,21,23,25,27,29,31,33,-1,-1,35,37,39,-1,41,-1,43,45,-1,47,-1,-1,49,51,-1,-1,-1,53,55,57,59,-1,-1,61,-1,-1,63,-1,-1,-1,-1,-1,-1,-1,-1,-1,-1,-1,-1,-1,-1,-1,-1,-1,-1],"loss_changes":[6.087037E2,4.0636597E0,5.271641E2,4.819641E0,1.8571022E1,2.1403008E2,5.224713E1,2.9295044E0,0E0,2.1819687E0,4.2620174E1,5.0630947E1,1.809021E0,5.2164917E0,6.5561366E0,4.5166016E-1,4.1418085E0,1.7078743E0,0E0,0E0,1.4175487E-1,2.954044E1,8.789281E1,0E0,2.6754625E0,0E0,9.58124E-1,2.0318027E0,0E0,1.4761245E0,0E0,0E0,1.4750504E-1,1.5446472E-1,0E0,0E0,0E0,1.6740103E1,4.7185516E-1,2.5708302E1,4.785843E-1,0E0,0E0,5.3841364E-1,0E0,0E0,2.1775956E0,0E0,0E0,0E0,0E0,0E0,0E0,0E0,0E0,0E0,0E0,0E0,0E0,0E0,0E0,0E0,0E0,0E0,0E0],"parents":[2147483647,0,0,1,1,2,2,3,3,4,4,5,5,6,6,7,7,9,9,10,10,11,11,12,12,13,13,14,14,15,15,16,16,17,17,20,20,21,21,22,22,24,24,26,26,27,27,29,29,32,32,33,33,37,37,38,38,39,39,40,40,43,43,46,46],"right_children":[2,4,6,8,10,12,14,16,-1,18,20,22,24,26,28,30,32,34,-1,-1,36,38,40,-1,42,-1,44,46,-1,48,-1,-1,50,52,-1,-1,-1,54,56,58,60,-1,-1,62,-1,-1,64,-1,-1,-1,-1,-1,-1,-1,-1,-1,-1,-1,-1,-1,-1,-1,-1,-1,-1],"split_conditions":[2.222579E0,2E0,7.344E3,5.27E2,5.1498865E6,1E0,1.096318E4,1.9566916E7,1.8078259E-1,9.1E1,4.079065E7,1.7E1,3.910039E1,4.41E2,4.78E2,1.986685E6,2.24E2,1.4995089E0,5.254023E-2,1.1729345E0,1.24875E2,2.3087314E3,3.718064E1,-3.0080876E-1,6.3015473E4,3.0169028E-1,9.06E2,3.595E2,-2.6912156E-1,8.104875E5,-2.9700777E-1,-2.323656E-1,4.4849108E7,4.8692665E6,3.7588645E-2,-2.4797252E-1,-5.1594425E-2,1.6049183E5,2.9716592E4,4.05E2,2.0686334E4,-2.2612433E-1,1.759385E-1,1.5328934E2,-1.482363E-1,-2.287084E-1,1.056E4,-2.3466294E-1,7.86364E-2,5.651691E-2,2.40093E-1,-2.9738614E-1,-1.1689458E-1,-8.73702E-2,1.19691506E-1,-2.8059736E-1,-1.7498064E-1,-9.36544E-3,2.0185426E-2,3.0142358E-1,5.892589E-2,-3.2580756E-2,1.8472739E-1,-9.622365E-3,2.5072426E-1],"split_indices":[15,19,4,7,17,11,17,17,0,19,1,0,9,6,6,18,7,15,0,0,8,14,9,0,17,0,1,8,0,17,0,0,1,17,0,0,0,21,20,8,16,0,0,17,0,0,4,0,0,0,0,0,0,0,0,0,0,0,0,0,0,0,0,0,0],"split_type":[0,0,0,0,0,0,0,0,0,0,0,0,0,0,0,0,0,0,0,0,0,0,0,0,0,0,0,0,0,0,0,0,0,0,0,0,0,0,0,0,0,0,0,0,0,0,0,0,0,0,0,0,0,0,0,0,0,0,0,0,0,0,0,0,0],"sum_hessian":[1.2704286E4,6.570841E2,1.2047201E4,6.0437555E2,5.2708538E1,1.1426246E4,6.2095544E2,6.030602E2,1.3153791E0,4.5314304E1,7.394232E0,1.1207946E4,2.1829974E2,5.929301E2,2.8025364E1,5.951233E2,7.9369187E0,4.377684E1,1.5374651E0,1.8459619E0,5.54827E0,4.002306E2,1.0807716E4,2.1387071E2,4.429027E0,5.884844E2,4.4457164E0,1.5505815E1,1.2519548E1,4.8196373E0,5.9030365E2,5.4080014E0,2.528917E0,4.252707E1,1.2497697E0,4.537512E0,1.0107582E0,3.2320676E2,7.7023834E1,1.0716925E4,9.079102E1,2.9381788E0,1.4908481E0,2.6210983E0,1.8246179E0,1.623822E0,1.3881993E1,3.4586759E0,1.3609612E0,1.522543E0,1.0063742E0,4.0330482E1,2.1965864E0,2.8400873E2,3.919801E1,6.604455E1,1.0979286E1,5.926887E3,4.7900376E3,8.9501595E1,1.289427E0,1.5062028E0,1.1148955E0,1.0991177E1,2.8908165E0],"tree_param":{"num_deleted":"0","num_feature":"24","num_nodes":"65","size_leaf_vector":"1"}},{"base_weights":[-1.0653375E-2,-9.387756E-1,2.8134365E-2,-9.695158E-1,-6.1715084E-1,-8.785886E-3,9.1992456E-1,-9.799622E-1,-2.6264268E-1,1.462447E-1,-9.662097E-1,5.5558714E-3,-9.8156935E-1,9.9010193E-1,-3.7388754E-1,-9.834592E-1,6.3660234E-2,-2.3889124E-1,4.3230796E-1,2.2908084E0,-7.4977446E-1,-7.683736E-2,-2.946637E-1,-3.216188E-2,7.609944E-2,-2.9979193E-1,-2.2686419E-1,3.0081338E-1,-1.2907763E-1,2.405032E-2,-2.5844532E-1,-6.270732E-1,-2.9630542E-1,-2.0155953E-1,3.2810986E-1,1.4675634E0,-4.7963643E-1,-2.7439857E-1,1.4159296E-1,-2.5156325E-1,-2.0778988E-2,7.6970744E-1,4.031852E-2,-2.2928298E-1,2.7048692E-1,2.3578633E-1,-5.139231E-1,2.3165908E-1,-3.396715E-1,-2.4877378E-1,-1.9585285E-2,-1.7311049E-1,-4.088481E-2,-1.8654579E-1,-3.4835894E-2,1.0626861E-1,-8.066609E-3,3.4197015E-1,3.861452E-2,2.3868663E-2,-3.734267E-2,-2.6777238E-2,1.502463E-1,-4.0120557E-2,-1.9951083E-1,-7.225283E-2,1.6311774E-1,-1.9334054E-1,1.2773985E-1],"categories":[],"categories_nodes":[],"categories_segments":[],"categories_sizes":[],"default_left":[0,0,0,0,0,0,0,0,0,0,0,0,0,0,0,0,0,0,0,0,0,0,0,0,0,0,0,0,0,0,0,0,0,0,0,0,0,0,0,0,0,0,0,0,0,0,0,0,0,0,0,0,0,0,0,0,0,0,0,0,0,0,0,0,0,0,0,0,0],"id":15,"left_children":[1,3,5,7,9,11,13,15,17,19,21,23,25,27,29,31,-1,-1,33,35,37,-1,-1,39,41,-1,43,-1,45,47,-1,49,-1,-1,-1,-1,51,-1,-1,53,55,57,59,-1,-1,61,63,65,67,-1,-1,-1,-1,-1,-1,-1,-1,-1,-1,-1,-1,-1,-1,-1,-1,-1,-1,-1,-1],"loss_changes":[4.409952E2,4.260132E0,3.8716818E2,3.041809E0,1.2298132E1,1.5754959E2,4.2815002E1,2.042694E0,3.2639966E0,3.089364E1,1.0567093E-1,2.9614578E1,1.969574E0,6.3908386E0,4.828357E0,4.144287E-2,0E0,0E0,3.7054532E0,3.6366035E1,2.7408347E0,0E0,0E0,1.8107529E1,9.620503E1,0E0,3.7584753E0,0E0,9.396872E-1,1.1823595E0,0E0,8.409345E-1,0E0,0E0,0E0,0E0,2.826631E-2,0E0,0E0,1.7862337E1,1.58094425E1,4.4978493E1,2.3863995E1,0E0,0E0,3.615337E-1,9.211403E-2,1.5906277E0,1.6081622E0,0E0,0E0,0E0,0E0,0E0,0E0,0E0,0E0,0E0,0E0,0E0,0E0,0E0,0E0,0E0,0E0,0E0,0E0,0E0,0E0],"parents":[2147483647,0,0,1,1,2,2,3,3,4,4,5,5,6,6,7,7,8,8,9,9,10,10,11,11,12,12,13,13,14,14,15,15,18,18,19,19,20,20,23,23,24,24,26,26,28,28,29,29,31,31,36,36,39,39,40,40,41,41,42,42,45,45,46,46,47,47,48,48],"right_children":[2,4,6,8,10,12,14,16,18,20,22,24,26,28,30,32,-1,-1,34,36,38,-1,-1,40,42,-1,44,-1,46,48,-1,50,-1,-1,-1,-1,52,-1,-1,54,56,58,60,-1,-1,62,64,66,68,-1,-1,-1,-1,-1,-1,-1,-1,-1,-1,-1,-1,-1,-1,-1,-1,-1,-1,-1,-1],"split_conditions":[1.9942983E0,2E0,7.344E3,1.9566916E7,7.055285E-1,1E0,9.1921E4,8.33E2,4.7E1,6E0,2.993879E6,1.76E3,2.57723E5,4.41E2,3.98999E5,9.102024E5,6.3660234E-2,-2.3889124E-1,4.2715624E7,2E0,1.7987888E7,-7.683736E-2,-2.946637E-1,3.5E1,1.834E3,-2.9979193E-1,4.8E1,3.0081338E-1,9.06E2,1E0,-2.5844532E-1,1.155865E6,-2.9630542E-1,-2.0155953E-1,3.2810986E-1,1.4675634E0,4.8E1,-2.7439857E-1,1.4159296E-1,1E0,3.86E2,4.41E2,1.456E3,-2.2928298E-1,2.7048692E-1,1.5328934E2,7.9630485E6,3.8857144E2,2.16733E5,-2.4877378E-1,-1.9585285E-2,-1.7311049E-1,-4.088481E-2,-1.8654579E-1,-3.4835894E-2,1.0626861E-1,-8.066609E-3,3.4197015E-1,3.861452E-2,2.3868663E-2,-3.734267E-2,-2.6777238E-2,1.502463E-1,-4.0120557E-2,-1.9951083E-1,-7.225283E-2,1.6311774E-1,-1.9334054E-1,1.2773985E-1],"split_indices":[15,19,4,17,15,11,18,7,7,2,1,4,1,6,1,16,0,0,1,4,21,0,0,7,4,0,11,0,1,19,0,17,0,0,0,0,19,0,0,3,4,6,6,0,0,17,14,8,1,0,0,0,0,0,0,0,0,0,0,0,0,0,0,0,0,0,0,0,0],"split_type":[0,0,0,0,0,0,0,0,0,0,0,0,0,0,0,0,0,0,0,0,0,0,0,0,0,0,0,0,0,0,0,0,0,0,0,0,0,0,0,0,0,0,0,0,0,0,0,0,0,0,0,0,0,0,0,0,0,0,0,0,0,0,0,0,0,0,0,0,0],"sum_hessian":[1.2248215E4,4.9040817E2,1.1757807E4,4.4578644E2,4.4621758E1,1.1291333E4,4.6647278E2,4.389137E2,6.872734E0,1.4183444E1,3.0438313E1,1.1128264E4,1.6306982E2,4.4269537E2,2.3777393E1,4.3780453E2,1.1091554E0,3.8049905E0,3.0677433E0,3.7209473E0,1.0462497E1,1.0456274E0,2.9392685E1,7.251582E3,3.876682E3,1.590087E2,4.0611267E0,4.378662E2,4.829177E0,1.3615873E1,1.0161519E1,6.8806467E0,4.309239E2,1.1432638E0,1.9244796E0,1.5241972E0,2.19675E0,9.439847E0,1.0226495E0,3.5662653E2,6.894955E3,1.8916838E2,3.6875134E3,2.9696507E0,1.0914757E0,2.6777656E0,2.1514115E0,8.899319E0,4.7165546E0,4.709679E0,2.1709676E0,1.1811196E0,1.0156305E0,9.4554955E1,2.6207156E2,1.0961985E2,6.7853354E3,1.1942082E2,6.974757E1,2.9786917E3,7.088217E2,1.5006105E0,1.177155E0,1.1480392E0,1.0033722E0,3.6305368E0,5.268782E0,3.4864058E0,1.2301489E0],"tree_param":{"num_deleted":"0","num_feature":"24","num_nodes":"69","size_leaf_vector":"1"}},{"base_weights":[-8.118245E-3,-9.213557E-1,2.136079E-2,-5.830851E-1,-9.61686E-1,-6.3941004E-3,9.034135E-1,-8.8073397E-1,-1.7151996E-1,-1.6391908E-1,-9.75823E-1,4.3232283E-3,-9.721709E-1,9.857882E-1,-2.944212E-1,-5.4853484E-2,-2.750075E-1,-2.7534655E-1,8.693495E-1,-2.1211511E-1,2.6538906E-1,-9.8129916E-1,-2.3945486E-3,6.4730914E-3,-2.9023787E-1,-2.9875916E-1,-1.0237437E-1,9.992634E-1,-3.6413375E-2,3.641551E-2,-8.3026254E-1,-1.8451689E-1,1.7023014E0,-1.9953519E-1,2.3585765E-1,-4.4013724E-1,-2.9617697E-1,1.2659075E-4,5.9469146E-1,-1.9805232E-1,1.6841874E-1,9.625996E-2,3.0042377E-1,1.1730609E-1,-2.7323437E-1,-1.0619485E-1,1.8263277E-1,-2.6374176E-1,-7.235722E-2,9.03559E-1,-3.8061365E-2,9.825197E-2,-2.2716886E-1,-4.7863297E-2,3.337046E-3,2.0375652E-2,2.9584435E-1,-1.5087435E-1,3.4608327E-2,-1.8022938E-1,1.5831716E-2],"categories":[],"categories_nodes":[],"categories_segments":[],"categories_sizes":[],"default_left":[0,0,0,0,0,0,0,0,0,0,0,0,0,0,0,0,0,0,0,0,0,0,0,0,0,0,0,0,0,0,0,0,0,0,0,0,0,0,0,0,0,0,0,0,0,0,0,0,0,0,0,0,0,0,0,0,0,0,0,0,0],"id":16,"left_children":[1,3,5,7,9,11,13,15,17,19,21,23,25,27,29,-1,-1,-1,31,-1,33,35,-1,37,-1,-1,39,41,43,45,47,-1,49,-1,-1,51,-1,53,55,-1,-1,-1,-1,-1,57,59,-1,-1,-1,-1,-1,-1,-1,-1,-1,-1,-1,-1,-1,-1,-1],"loss_changes":[3.210623E2,4.526947E0,2.828446E2,5.0266037E0,3.5805054E0,1.1594915E2,3.5067444E1,4.4182014E-1,1.5541938E1,1.8144329E0,1.7183228E0,2.315433E1,2.4317627E0,4.58197E0,4.187115E0,0E0,0E0,0E0,1.1482004E1,0E0,2.7636585E0,6.095276E-1,0E0,4.1274902E1,0E0,0E0,1.9904023E0,1.53656E-1,6.391376E-1,1.3262032E0,4.688692E-2,0E0,1.3967598E1,0E0,0E0,1.5455612E0,0E0,1.9210072E1,2.426934E1,0E0,0E0,0E0,0E0,0E0,4.1256574E-1,1.071398E0,0E0,0E0,0E0,0E0,0E0,0E0,0E0,0E0,0E0,0E0,0E0,0E0,0E0,0E0,0E0],"parents":[2147483647,0,0,1,1,2,2,3,3,4,4,5,5,6,6,7,7,8,8,9,9,10,10,11,11,12,12,13,13,14,14,18,18,20,20,21,21,23,23,26,26,27,27,28,28,29,29,30,30,32,32,35,35,37,37,38,38,44,44,45,45],"right_children":[2,4,6,8,10,12,14,16,18,20,22,24,26,28,30,-1,-1,-1,32,-1,34,36,-1,38,-1,-1,40,42,44,46,48,-1,50,-1,-1,52,-1,54,56,-1,-1,-1,-1,-1,58,60,-1,-1,-1,-1,-1,-1,-1,-1,-1,-1,-1,-1,-1,-1,-1],"split_conditions":[1.9942983E0,1E0,7.344E3,2E0,1.353929E-1,1E0,1.096318E4,5.993687E6,2.527022E6,1.7E1,5.27E2,1.161E3,3.910039E1,4.41E2,4.78E2,-5.4853484E-2,-2.750075E-1,-2.7534655E-1,2.8508818E-1,-2.1211511E-1,4.2715624E7,9.102024E5,-2.3945486E-3,3.718064E1,-2.9023787E-1,-2.9875916E-1,4.7E1,4.05E2,4.99E2,4.31E2,7.72E2,-1.8451689E-1,3E0,-1.9953519E-1,2.3585765E-1,4.41E2,-2.9617697E-1,2.7E2,1.7E1,-1.9805232E-1,1.6841874E-1,9.625996E-2,3.0042377E-1,1.1730609E-1,2.3354414E2,2.9079494E1,1.8263277E-1,-2.6374176E-1,-7.235722E-2,9.03559E-1,-3.8061365E-2,9.825197E-2,-2.2716886E-1,-4.7863297E-2,3.337046E-3,2.0375652E-2,2.9584435E-1,-1.5087435E-1,3.4608327E-2,-1.8022938E-1,1.5831716E-2],"split_indices":[15,6,4,19,15,11,17,1,16,0,7,10,9,6,6,0,0,0,15,0,1,16,0,9,0,0,11,8,1,8,8,0,3,0,0,6,0,6,0,0,0,0,0,0,17,9,0,0,0,0,0,0,0,0,0,0,0,0,0,0,0],"split_type":[0,0,0,0,0,0,0,0,0,0,0,0,0,0,0,0,0,0,0,0,0,0,0,0,0,0,0,0,0,0,0,0,0,0,0,0,0,0,0,0,0,0,0,0,0,0,0,0,0,0,0,0,0,0,0,0,0,0,0,0,0],"sum_hessian":[1.19242E4,3.7192734E2,1.1552272E4,4.126602E1,3.3066132E2,1.1200817E4,3.51455E2,2.3285618E1,1.7980404E1,5.9768176E0,3.246845E2,1.107887E4,1.21947876E2,3.2900635E2,2.244864E1,1.439125E0,2.1846493E1,1.0540849E1,7.439556E0,2.3530045E0,3.6238132E0,3.228439E2,1.8406065E0,1.1055405E4,2.34644E1,1.1857305E2,3.374825E0,3.247478E2,4.258543E0,1.4455582E1,7.993058E0,2.7681046E0,4.6714516E0,1.2009698E0,2.4228435E0,4.3306875E0,3.185132E2,1.0938388E4,1.17018005E2,1.8367375E0,1.5380875E0,1.5001707E0,3.2324762E2,1.2861227E0,2.97242E0,1.2224232E1,2.2313502E0,6.9259796E0,1.0670787E0,2.3455951E0,2.3258562E0,1.2563549E0,3.0743325E0,7.0393915E2,1.0234448E4,5.0387012E1,6.663099E1,1.6833107E0,1.2891092E0,2.297429E0,9.926803E0],"tree_param":{"num_deleted":"0","num_feature":"24","num_nodes":"61","size_leaf_vector":"1"}},{"base_weights":[-6.2980526E-3,-9.0154594E-1,1.5950847E-2,-5.363887E-1,-9.496019E-1,-4.8430013E-3,8.838939E-1,-8.453102E-1,-1.6562702E-1,-1.636289E-1,-9.659896E-1,3.1560762E-3,-9.606154E-1,9.79617E-1,-2.490432E-1,-4.686592E-2,-2.6691788E-1,5.808247E-1,-2.6879025E-1,-1.9937868E-1,2.1661878E-1,-9.7325784E-1,-1.9294231E-3,3.0507028E-2,-6.906106E-2,-2.9759943E-1,-5.1958073E-2,9.967307E-1,-2.2063393E-2,-2.4366318E-1,2.8431267E-2,-4.115454E-1,1.3485253E0,-1.8692106E-1,2.1357235E-1,-3.825256E-1,-2.9435095E-1,-2.7748968E-2,3.5286775E-1,-9.4845724E-1,-1.5657548E-2,2.4504663E-1,-2.0214659E-1,9.454962E-2,2.9975918E-1,-2.3361295E-1,1.0429651E-1,-1.5200989E-1,3.908243E-1,-2.2711545E-1,1.3133301E-1,8.091829E-2,5.281576E-1,7.664321E-2,-2.1372212E-1,-7.41904E-3,-1.4807601E-1,3.653378E-1,-3.7627013E-3,-1.4348286E-1,-3.994657E-1,-8.453201E-3,1.6487509E-1,-1.341162E-1,3.2606136E-2,-2.56485E-1,3.2518536E-2,-1.1291191E-1,2.1828787E-1],"categories":[],"categories_nodes":[],"categories_segments":[],"categories_sizes":[],"default_left":[0,0,0,0,0,0,0,0,0,0,0,0,0,0,0,0,0,0,0,0,0,0,0,0,0,0,0,0,0,0,0,0,0,0,0,0,0,0,0,0,0,0,0,0,0,0,0,0,0,0,0,0,0,0,0,0,0,0,0,0,0,0,0,0,0,0,0,0,0],"id":17,"left_children":[1,3,5,7,9,11,13,15,17,19,21,23,25,27,29,-1,-1,31,-1,-1,33,35,-1,37,39,-1,41,43,45,-1,47,49,51,-1,-1,53,-1,55,57,59,61,-1,-1,-1,-1,63,-1,65,67,-1,-1,-1,-1,-1,-1,-1,-1,-1,-1,-1,-1,-1,-1,-1,-1,-1,-1,-1,-1],"loss_changes":[2.32824E2,4.4646606E0,2.0585454E2,3.8988895E0,3.0515594E0,8.517104E1,2.9185287E1,4.422884E-1,9.935935E0,1.3428164E0,1.6947632E0,2.1825104E1,2.5851135E0,4.243805E0,3.3966196E0,0E0,0E0,7.5243187E0,0E0,0E0,2.245196E0,7.559967E-1,0E0,1.5051173E2,1.4253023E2,0E0,2.7881935E0,9.21936E-2,4.8130593E-1,0E0,1.068315E0,1.7271403E0,1.9215508E0,0E0,0E0,1.2002556E0,0E0,9.534357E0,3.8771628E2,3.0660599E1,2.0272667E1,0E0,0E0,0E0,0E0,3.2999972E-1,0E0,2.109914E0,1.6714286E0,0E0,0E0,0E0,0E0,0E0,0E0,0E0,0E0,0E0,0E0,0E0,0E0,0E0,0E0,0E0,0E0,0E0,0E0,0E0,0E0],"parents":[2147483647,0,0,1,1,2,2,3,3,4,4,5,5,6,6,7,7,8,8,9,9,10,10,11,11,12,12,13,13,14,14,17,17,20,20,21,21,23,23,24,24,26,26,27,27,28,28,30,30,31,31,32,32,35,35,37,37,38,38,39,39,40,40,45,45,47,47,48,48],"right_children":[2,4,6,8,10,12,14,16,18,20,22,24,26,28,30,-1,-1,32,-1,-1,34,36,-1,38,40,-1,42,44,46,-1,48,50,52,-1,-1,54,-1,56,58,60,62,-1,-1,-1,-1,64,-1,66,68,-1,-1,-1,-1,-1,-1,-1,-1,-1,-1,-1,-1,-1,-1,-1,-1,-1,-1,-1,-1],"split_conditions":[1.9942983E0,1E0,7.344E3,2E0,1.353929E-1,1E0,1.51161E5,5.993687E6,7.055285E-1,4.94E2,5.27E2,5.07E2,2.57723E5,4.41E2,3.0659367E4,-4.686592E-2,-2.6691788E-1,1E0,-2.6879025E-1,-1.9937868E-1,4.2715624E7,9.102024E5,-1.9294231E-3,4.4E2,5.17E2,-2.9759943E-1,2.09653E5,4.05E2,2.2849122E7,-2.4366318E-1,2.18074E5,1.5E1,5.493962E6,-1.8692106E-1,2.1357235E-1,4.41E2,-2.9435095E-1,5.8E1,4.41E2,5.16E2,5.8E1,2.4504663E-1,-2.0214659E-1,9.454962E-2,2.9975918E-1,2.3354414E2,1.0429651E-1,3.8857144E2,3.21E2,-2.2711545E-1,1.3133301E-1,8.091829E-2,5.281576E-1,7.664321E-2,-2.1372212E-1,-7.41904E-3,-1.4807601E-1,3.653378E-1,-3.7627013E-3,-1.4348286E-1,-3.994657E-1,-8.453201E-3,1.6487509E-1,-1.341162E-1,3.2606136E-2,-2.56485E-1,3.2518536E-2,-1.1291191E-1,2.1828787E-1],"split_indices":[15,6,4,19,15,11,1,1,15,4,7,6,1,6,14,0,0,23,0,0,1,16,0,6,6,0,22,8,14,0,1,19,17,0,0,6,0,19,6,7,19,0,0,0,0,17,0,8,7,0,0,0,0,0,0,0,0,0,0,0,0,0,0,0,0,0,0,0,0],"split_type":[0,0,0,0,0,0,0,0,0,0,0,0,0,0,0,0,0,0,0,0,0,0,0,0,0,0,0,0,0,0,0,0,0,0,0,0,0,0,0,0,0,0,0,0,0,0,0,0,0,0,0,0,0,0,0,0,0,0,0,0,0,0,0,0,0,0,0,0,0],"sum_hessian":[1.168724E4,2.8245215E2,1.1404788E4,3.4263042E1,2.481891E2,1.1138921E4,2.6586758E2,1.7992022E1,1.6271019E1,5.293472E0,2.4289563E2,1.1047458E4,9.1462006E1,2.4527902E2,2.0588566E1,1.3629999E0,1.6629023E1,8.147998E0,8.123022E0,1.9614779E0,3.331994E0,2.4105545E2,1.8401735E0,8.013185E3,3.0342734E3,8.831995E1,3.1420584E0,2.411637E2,4.1153297E0,6.159657E0,1.4428908E1,3.7563138E0,4.391684E0,1.1404824E0,2.1915116E0,3.838098E0,2.3721736E2,6.7874863E3,1.2256989E3,1.7275497E2,2.8615183E3,1.1800096E0,1.9620486E0,1.3339719E0,2.3982971E2,2.851729E0,1.2636008E0,1.0020222E1,4.4086866E0,2.747333E0,1.0089808E0,1.6709857E0,2.7206984E0,1.3850017E0,2.4530966E0,6.74483E3,4.2656406E1,3.6334033E2,8.623585E2,7.857122E1,9.418376E1,2.8004402E3,6.1078087E1,1.567984E0,1.2837449E0,2.0914326E0,7.9287896E0,1.309134E0,3.0995524E0],"tree_param":{"num_deleted":"0","num_feature":"24","num_nodes":"69","size_leaf_vector":"1"}},{"base_weights":[-3.8268473E-3,-8.780341E-1,1.306284E-2,-4.8598817E-1,-9.3464464E-1,-1.6250954E-3,9.2475593E-1,-8.032831E-1,-1.4250258E-1,-9.534701E-1,-1.6027701E-1,4.405198E-3,-9.462865E-1,9.822677E-1,-3.5207406E-1,-3.0168703E-1,-2.7524254E-1,4.47854E-1,-2.5973105E-1,-9.63058E-1,-1.5546194E-3,-1.9625749E-1,2.571278E-1,6.0616834E-3,-2.8595695E-1,-2.9624423E-1,-6.108951E-3,-2.0122203E-1,2.9948723E-1,-7.1840274E-1,2.728399E-1,-1.9946958E-1,8.783477E-2,-1.7503342E-1,8.7074476E-1,-3.361418E-1,-2.9205257E-1,-1.7192857E-1,2.30213E-1,2.2484977E-3,4.434131E-1,-1.7926416E-1,1.7560463E-1,-6.412747E-2,-2.3818423E-1,-1.0183523E-2,1.6983779E-1,3.4972167E-1,1.0200457E-2,5.6495134E-2,-1.9989076E-1,4.8132637E-4,5.0689334E-1,3.9311065E-3,2.8866455E-1],"categories":[],"categories_nodes":[],"categories_segments":[],"categories_sizes":[],"default_left":[0,0,0,0,0,0,0,0,0,0,0,0,0,0,0,0,0,0,0,0,0,0,0,0,0,0,0,0,0,0,0,0,0,0,0,0,0,0,0,0,0,0,0,0,0,0,0,0,0,0,0,0,0,0,0],"id":18,"left_children":[1,3,5,7,9,11,13,15,17,19,21,23,25,27,29,31,-1,33,-1,35,-1,-1,37,39,-1,-1,41,-1,-1,43,45,-1,-1,-1,47,49,-1,-1,-1,51,53,-1,-1,-1,-1,-1,-1,-1,-1,-1,-1,-1,-1,-1,-1],"loss_changes":[1.6850253E2,4.3464203E0,1.4992781E2,3.0871243E0,2.5868073E0,6.2778416E1,1.33815155E1,5.8551025E-1,6.9298224E0,1.6612701E0,1.3355725E0,1.7376268E1,2.701294E0,5.175766E0,2.116087E0,1.1191568E0,0E0,4.4745836E0,0E0,8.614044E-1,0E0,0E0,2.0439084E0,1.8231668E1,0E0,0E0,1.728194E0,0E0,0E0,4.2365074E-2,3.6332422E-1,0E0,0E0,0E0,1.6514931E0,9.050457E-1,0E0,0E0,0E0,1.1777588E1,2.1082317E1,0E0,0E0,0E0,0E0,0E0,0E0,0E0,0E0,0E0,0E0,0E0,0E0,0E0,0E0],"parents":[2147483647,0,0,1,1,2,2,3,3,4,4,5,5,6,6,7,7,8,8,9,9,10,10,11,11,12,12,13,13,14,14,15,15,17,17,19,19,22,22,23,23,26,26,29,29,30,30,34,34,35,35,39,39,40,40],"right_children":[2,4,6,8,10,12,14,16,18,20,22,24,26,28,30,32,-1,34,-1,36,-1,-1,38,40,-1,-1,42,-1,-1,44,46,-1,-1,-1,48,50,-1,-1,-1,52,54,-1,-1,-1,-1,-1,-1,-1,-1,-1,-1,-1,-1,-1,-1],"split_conditions":[1.9942983E0,1E0,9.68E3,2E0,9.843694E6,1E0,4.47E2,1.5000229E7,7.055285E-1,5.27E2,8E1,1.161E3,3.910039E1,4.03E2,1.464E3,2.8868405E6,-2.7524254E-1,2.8508818E-1,-2.5973105E-1,9.102024E5,-1.5546194E-3,-1.9625749E-1,4.2715624E7,3.718064E1,-2.8595695E-1,-2.9624423E-1,4.25452E4,-2.0122203E-1,2.9948723E-1,4.78E2,2.3354414E2,-1.9946958E-1,8.783477E-2,-1.7503342E-1,6E0,4.41E2,-2.9205257E-1,-1.7192857E-1,2.30213E-1,8E0,1.7E1,-1.7926416E-1,1.7560463E-1,-6.412747E-2,-2.3818423E-1,-1.0183523E-2,1.6983779E-1,3.4972167E-1,1.0200457E-2,5.6495134E-2,-1.9989076E-1,4.8132637E-4,5.0689334E-1,3.9311065E-3,2.8866455E-1],"split_indices":[15,6,4,19,16,11,6,1,15,7,7,10,9,6,7,17,0,15,0,16,0,0,1,9,0,0,16,0,0,6,17,0,0,0,2,6,0,0,0,3,0,0,0,0,0,0,0,0,0,0,0,0,0,0,0],"split_type":[0,0,0,0,0,0,0,0,0,0,0,0,0,0,0,0,0,0,0,0,0,0,0,0,0,0,0,0,0,0,0,0,0,0,0,0,0,0,0,0,0,0,0,0,0,0,0,0,0,0,0,0,0,0,0],"sum_hessian":[1.1410449E4,2.1530518E2,1.1195145E4,2.8376135E1,1.8692905E2,1.1018626E4,1.7651862E2,1.40545845E1,1.4321549E1,1.822667E2,4.6623416E0,1.0949723E4,6.890277E1,1.691312E2,7.3874063E0,3.2816494E0,1.0772935E1,8.094954E0,6.2265964E0,1.8042688E2,1.8398234E0,1.8756287E0,2.7867126E0,1.0931807E4,1.7916592E1,6.5962296E1,2.9404755E0,1.2314323E0,1.6789977E2,4.562964E0,2.8244424E0,1.9635049E0,1.3181443E0,2.243674E0,5.8512793E0,3.5021298E0,1.7692474E2,1.0138749E0,1.7728379E0,1.0838314E4,9.3492096E1,1.4651139E0,1.4753616E0,1.0927649E0,3.4701993E0,1.8126363E0,1.0118061E0,4.0354095E0,1.81587E0,1.5189322E0,1.9831977E0,1.083518E4,3.1348221E0,5.166495E1,4.182715E1],"tree_param":{"num_deleted":"0","num_feature":"24","num_nodes":"55","size_leaf_vector":"1"}},{"base_weights":[-3.0215653E-3,-8.503339E-1,9.663094E-3,-4.423872E-1,-9.1651684E-1,-1.2813217E-3,9.106888E-1,-7.8236014E-1,-1.0116562E-1,-9.37498E-1,-1.4001314E-1,3.2171307E-3,-9.2838997E-1,9.7698694E-1,-2.9866275E-1,1.3188158E-1,-2.7956656E-1,-2.4655189E-1,3.42729E-1,-9.4993824E-1,-1.5172617E-2,-1.8716824E-1,8.825059E-2,4.4632377E-3,-2.8065863E-1,-2.9456308E-1,-1.2404503E-2,-1.835537E-1,2.9860806E-1,-6.574164E-1,2.3025489E-1,7.184764E-1,-2.0373388E-1,-2.9354084E-1,-2.890981E-1,-2.4178654E-2,4.096942E-2,-1.9534191E-1,2.382224E-1,-5.417675E-2,-2.2427599E-1,-8.22184E-3,1.4160542E-1,-1.0958204E-1,3.1426138E-1,-1.9052364E-1,5.784599E-2,-5.9816316E-3,-2.3956692E-1,1.1016547E-1,-1.1462827E-2],"categories":[],"categories_nodes":[],"categories_segments":[],"categories_sizes":[],"default_left":[0,0,0,0,0,0,0,0,0,0,0,0,0,0,0,0,0,0,0,0,0,0,0,0,0,0,0,0,0,0,0,0,0,0,0,0,0,0,0,0,0,0,0,0,0,0,0,0,0,0,0],"id":19,"left_children":[1,3,5,7,9,11,13,15,17,19,21,23,25,27,29,-1,-1,-1,31,33,-1,-1,-1,35,-1,-1,37,-1,-1,39,41,43,-1,45,-1,47,49,-1,-1,-1,-1,-1,-1,-1,-1,-1,-1,-1,-1,-1,-1],"loss_changes":[1.2131725E2,4.0895615E0,1.0967064E2,2.8410454E0,2.1873093E0,4.5832554E1,1.0992844E1,2.6865082E0,4.668125E0,1.4789505E0,1.2171292E0,1.2797776E1,2.5876656E0,4.3095016E0,1.6129134E0,0E0,0E0,0E0,4.0168657E0,9.4592285E-1,0E0,0E0,0E0,1.1422435E1,0E0,0E0,2.5468948E0,0E0,0E0,7.347369E-2,2.529849E-1,2.9524107E0,0E0,8.25372E-1,0E0,2.0082834E1,1.2407771E2,0E0,0E0,0E0,0E0,0E0,0E0,0E0,0E0,0E0,0E0,0E0,0E0,0E0,0E0],"parents":[2147483647,0,0,1,1,2,2,3,3,4,4,5,5,6,6,7,7,8,8,9,9,10,10,11,11,12,12,13,13,14,14,18,18,19,19,23,23,26,26,29,29,30,30,31,31,33,33,35,35,36,36],"right_children":[2,4,6,8,10,12,14,16,18,20,22,24,26,28,30,-1,-1,-1,32,34,-1,-1,-1,36,-1,-1,38,-1,-1,40,42,44,-1,46,-1,48,50,-1,-1,-1,-1,-1,-1,-1,-1,-1,-1,-1,-1,-1,-1],"split_conditions":[1.9942983E0,1E0,9.68E3,1E0,1.9566916E7,1E0,4.47E2,1.448862E6,2.8868405E6,5.27E2,8E1,1.161E3,2.57723E5,4.03E2,1.464E3,1.3188158E-1,-2.7956656E-1,-2.4655189E-1,8E0,9.102024E5,-1.5172617E-2,-1.8716824E-1,8.825059E-2,4.04E2,-2.8065863E-1,-2.9456308E-1,1.2844885E1,-1.835537E-1,2.9860806E-1,4.78E2,2.3354414E2,5E0,-2.0373388E-1,8E1,-2.890981E-1,4.03E2,4.41E2,-1.9534191E-1,2.382224E-1,-5.417675E-2,-2.2427599E-1,-8.22184E-3,1.4160542E-1,-1.0958204E-1,3.1426138E-1,-1.9052364E-1,5.784599E-2,-5.9816316E-3,-2.3956692E-1,1.1016547E-1,-1.1462827E-2],"split_indices":[15,6,4,23,17,11,6,17,17,7,7,10,1,6,7,0,0,0,2,16,0,0,0,6,0,0,15,0,0,6,17,2,0,7,0,6,6,0,0,0,0,0,0,0,0,0,0,0,0,0,0],"split_type":[0,0,0,0,0,0,0,0,0,0,0,0,0,0,0,0,0,0,0,0,0,0,0,0,0,0,0,0,0,0,0,0,0,0,0,0,0,0,0,0,0,0,0,0,0,0,0,0,0,0,0],"sum_hessian":[1.1285799E4,1.6548761E2,1.1120311E4,2.4172762E1,1.4131485E2,1.0987845E4,1.3246657E2,1.146094E1,1.2711822E1,1.3739511E2,3.919739E0,1.0935779E4,5.2065304E1,1.2576417E2,6.702404E0,1.0380358E0,1.0422905E1,4.5207853E0,8.191036E0,1.3542455E2,1.9705664E0,1.647128E0,2.2726111E0,1.0922276E4,1.3503165E1,4.9124832E1,2.9404705E0,1.0684515E0,1.2469572E2,3.8488584E0,2.8535457E0,6.2059073E0,1.985129E0,3.2316132E0,1.3219293E2,6.1205635E3,4.8017124E3,1.7483689E0,1.1921017E0,1.08962E0,2.7592382E0,1.8105638E0,1.042982E0,1.4198025E0,4.7861047E0,1.7188237E0,1.5127895E0,6.088255E3,3.230875E1,9.3705005E2,3.8646624E3],"tree_param":{"num_deleted":"0","num_feature":"24","num_nodes":"51","size_leaf_vector":"1"}},{"base_weights":[-2.5314773E-3,-8.1630653E-1,7.003378E-3,-4.0296063E-1,-8.918029E-1,-1.0277842E-3,9.102398E-1,-4.9504194E-1,2.2626048E-1,-9.167345E-1,-1.3147183E-1,2.3491238E-3,-9.065631E-1,9.687608E-1,-1.9726637E-1,-2.7575997E-1,-1.508831E-1,-9.330497E-1,-1.21753495E-2,-1.7365262E-1,7.043186E-2,-2.439794E-2,4.6134576E-2,-2.9265428E-1,6.1844945E-2,-5.1937204E-2,2.959638E-1,-1.9813158E-1,1.9453776E-1,-7.308748E-1,5.4870766E-1,-2.5682333E-1,-2.8527862E-1,-1.8947718E-3,-1.1758154E-1,1.1548266E0,-2.8951325E-2,1.9539575E-1,-1.7219366E-1,1.18220165E-1,-8.353159E-3,-2.5245187E-1,-2.1075182E-2,3.377481E-1,-1.9491172E-1,8.5273884E-2,-1.8897894E-1,-4.6404535E-3,9.717713E-2,-4.5413475E-2,5.618453E-3,3.175429E-1,5.1135325E-1,-5.0969467E-2,2.046274E-3],"categories":[],"categories_nodes":[],